{"learner":{"attributes":{},"feature_names":[],"feature_types":[],"gradient_booster":{"model":{"cats":{"enc":[],"feature_segments":[],"sorted_idx":[]},"gbtree_model_param":{"num_parallel_tree":"1","num_trees":"100"},"iteration_indptr":[0,1,2,3,4,5,6,7,8,9,10,11,12,13,14,15,16,17,18,19,20,21,22,23,24,25,26,27,28,29,30,31,32,33,34,35,36,37,38,39,40,41,42,43,44,45,46,47,48,49,50,51,52,53,54,55,56,57,58,59,60,61,62,63,64,65,66,67,68,69,70,71,72,73,74,75,76,77,78,79,80,81,82,83,84,85,86,87,88,89,90,91,92,93,94,95,96,97,98,99,100],"tree_info":[0,0,0,0,0,0,0,0,0,0,0,0,0,0,0,0,0,0,0,0,0,0,0,0,0,0,0,0,0,0,0,0,0,0,0,0,0,0,0,0,0,0,0,0,0,0,0,0,0,0,0,0,0,0,0,0,0,0,0,0,0,0,0,0,0,0,0,0,0,0,0,0,0,0,0,0,0,0,0,0,0,0,0,0,0,0,0,0,0,0,0,0,0,0,0,0,0,0,0,0],"trees":[{"base_weights":[-9.85164E-2,5.738887E-1,-1.4733817E-1,-4.472688E-2,8.243663E-1,2.449442E-1,-9.768742E-2,9.643193E-1,-4.330345E-1,5.365435E-2,-4.3303452E-2,2.907364E-2,1.24538735E-1,-1.02145314E-1,2.9825374E-2],"categories":[],"categories_nodes":[],"categories_segments":[],"categories_sizes":[],"default_left":[0,0,0,0,0,0,0,0,0,0,0,0,0,0,0],"id":0,"left_children":[1,3,-1,5,7,9,-1,11,13,-1,-1,-1,-1,-1,-1],"loss_changes":[8.417445E1,9.52787E0,0E0,5.262064E0,8.099073E0,3.1960678E0,0E0,7.1329193E0,2.4828286E0,0E0,0E0,0E0,0E0,0E0,0E0],"parents":[2147483647,0,0,1,1,3,3,4,4,5,5,7,7,8,8],"right_children":[2,4,-1,6,8,10,-1,12,14,-1,-1,-1,-1,-1,-1],"split_conditions":[4.961992E-1,-5.482003E-1,-1.4733817E-1,9.2350864E-1,1.2179592E0,4.1960996E-1,-9.768742E-2,-6.556877E-1,1.6999574E0,5.365435E-2,-4.3303452E-2,2.907364E-2,1.24538735E-1,-1.02145314E-1,2.9825374E-2],"split_indices":[2,7,0,8,4,3,0,4,4,0,0,0,0,0,0],"split_type":[0,0,0,0,0,0,0,0,0,0,0,0,0,0,0],"sum_hessian":[8.913729E1,6.0252293E1,2.8884995E1,1.7601793E1,4.26505E1,1.3991169E1,3.6106243E0,3.8588547E1,4.0619526E0,9.929216E0,4.0619526E0,1.1960193E1,2.6628355E1,2.0309763E0,2.0309763E0],"tree_param":{"num_deleted":"0","num_feature":"10","num_nodes":"15","size_leaf_vector":"1"}},{"base_weights":[3.8823932E-2,-1.4865015E-1,1.4069481E0,2.6770565E-1,-1.3618462E-1],"categories":[],"categories_nodes":[],"categories_segments":[],"categories_sizes":[],"default_left":[0,0,0,0,0],"id":1,"left_children":[1,-1,3,-1,-1],"loss_changes":[1.933043E2,0E0,1.7531863E2,0E0,0E0],"parents":[2147483647,0,0,2,2],"right_children":[2,-1,4,-1,-1],"split_conditions":[5.2795885E-4,-1.4865015E-1,4.961992E-1,2.6770565E-1,-1.3618462E-1],"split_indices":[0,0,2,0,0],"split_type":[0,0,0,0,0],"sum_hessian":[9.0628174E1,4.2811256E1,4.7816914E1,3.2802708E1,1.5014207E1],"tree_param":{"num_deleted":"0","num_feature":"10","num_nodes":"5","size_leaf_vector":"1"}},{"base_weights":[1.28316665E-2,-1.4170593E-1,1.176643E0,2.2812116E-1,-1.3078533E-1],"categories":[],"categories_nodes":[],"categories_segments":[],"categories_sizes":[],"default_left":[0,0,0,0,0],"id":2,"left_children":[1,-1,3,-1,-1],"loss_changes":[1.509047E2,0E0,1.401597E2,0E0,0E0],"parents":[2147483647,0,0,2,2],"right_children":[2,-1,4,-1,-1],"split_conditions":[5.2795885E-4,-1.4170593E-1,4.961992E-1,2.2812116E-1,-1.3078533E-1],"split_indices":[0,0,2,0,0],"split_type":[0,0,0,0,0],"sum_hessian":[8.8679245E1,3.9693325E1,4.8985924E1,3.3966682E1,1.5019239E1],"tree_param":{"num_deleted":"0","num_feature":"10","num_nodes":"5","size_leaf_vector":"1"}},{"base_weights":[-2.1007337E-2,-1.3573793E-1,1.1004983E0,2.0110701E-1,-1.2516044E-1],"categories":[],"categories_nodes":[],"categories_segments":[],"categories_sizes":[],"default_left":[0,0,0,0,0],"id":3,"left_children":[1,-1,3,-1,-1],"loss_changes":[1.3400824E2,0E0,1.0666063E2,0E0,0E0],"parents":[2147483647,0,0,2,2],"right_children":[2,-1,4,-1,-1],"split_conditions":[5.2795885E-4,-1.3573793E-1,4.961992E-1,2.0110701E-1,-1.2516044E-1],"split_indices":[0,0,2,0,0],"split_type":[0,0,0,0,0],"sum_hessian":[8.741672E1,3.9791435E1,4.7625282E1,3.443819E1,1.3187095E1],"tree_param":{"num_deleted":"0","num_feature":"10","num_nodes":"5","size_leaf_vector":"1"}},{"base_weights":[1.7603513E-2,-1.3049442E-1,1.0178915E0,3.2798216E-1,1.1516801E0,5.881461E-1,-5.214354E-2,8.377117E-3,1.1954935E0,-3.0727556E-2,9.543215E-2,1.2342753E-1,1.0444917E-3],"categories":[],"categories_nodes":[],"categories_segments":[],"categories_sizes":[],"default_left":[0,0,0,0,0,0,0,0,0,0,0,0,0],"id":4,"left_children":[1,-1,3,5,7,9,-1,-1,11,-1,-1,-1,-1],"loss_changes":[1.1143034E2,0E0,4.047962E0,2.3366966E0,1.7602577E0,2.7530613E0,0E0,0E0,1.7390213E0,0E0,0E0,0E0,0E0],"parents":[2147483647,0,0,2,2,3,3,4,4,5,5,8,8],"right_children":[2,-1,4,6,8,10,-1,-1,12,-1,-1,-1,-1],"split_conditions":[5.2795885E-4,-1.3049442E-1,-8.3305603E-1,5.0558925E-1,-1.6151319E0,-3.924711E-1,-5.214354E-2,8.377117E-3,1.7963609E0,-3.0727556E-2,9.543215E-2,1.2342753E-1,1.0444917E-3],"split_indices":[0,0,7,6,6,9,0,0,9,0,0,0,0],"split_type":[0,0,0,0,0,0,0,0,0,0,0,0,0],"sum_hessian":[8.222599E1,3.5278008E1,4.6947983E1,8.186101E0,3.8761883E1,6.502171E0,1.6839294E0,1.6423818E0,3.71195E1,1.9339253E0,4.568246E0,3.5903E1,1.2165002E0],"tree_param":{"num_deleted":"0","num_feature":"10","num_nodes":"13","size_leaf_vector":"1"}},{"base_weights":[-9.3906485E-2,-1.2626688E-1,8.110594E-1,1.7279565E-1,-1.23941E-1],"categories":[],"categories_nodes":[],"categories_segments":[],"categories_sizes":[],"default_left":[0,0,0,0,0],"id":5,"left_children":[1,-1,3,-1,-1],"loss_changes":[8.695598E1,0E0,8.937471E1,0E0,0E0],"parents":[2147483647,0,0,2,2],"right_children":[2,-1,4,-1,-1],"split_conditions":[5.2795885E-4,-1.2626688E-1,4.9403018E-1,1.7279565E-1,-1.23941E-1],"split_indices":[0,0,2,0,0],"split_type":[0,0,0,0,0],"sum_hessian":[8.0244865E1,3.4846016E1,4.539885E1,3.1479584E1,1.3919265E1],"tree_param":{"num_deleted":"0","num_feature":"10","num_nodes":"5","size_leaf_vector":"1"}},{"base_weights":[-3.1067101E-2,-1.2271489E-1,8.13715E-1,1.6127335E-1,-1.1963189E-1],"categories":[],"categories_nodes":[],"categories_segments":[],"categories_sizes":[],"default_left":[0,0,0,0,0],"id":6,"left_children":[1,-1,3,-1,-1],"loss_changes":[7.861614E1,0E0,7.519893E1,0E0,0E0],"parents":[2147483647,0,0,2,2],"right_children":[2,-1,4,-1,-1],"split_conditions":[5.2795885E-4,-1.2271489E-1,4.961992E-1,1.6127335E-1,-1.1963189E-1],"split_indices":[0,0,2,0,0],"split_type":[0,0,0,0,0],"sum_hessian":[7.581652E1,3.119565E1,4.4620872E1,3.2070164E1,1.255071E1],"tree_param":{"num_deleted":"0","num_feature":"10","num_nodes":"5","size_leaf_vector":"1"}},{"base_weights":[-3.4557864E-2,-1.1941035E-1,7.636014E-1,1.3090052E-1,9.14402E-1,8.190311E-1,-3.282986E-1,9.804558E-1,3.0984306E-1,9.507582E-2,2.5320584E-2,4.145319E-3,-8.141991E-2,6.7892494E-3,1.0228928E-1,-2.5748337E-2,8.490785E-2],"categories":[],"categories_nodes":[],"categories_segments":[],"categories_sizes":[],"default_left":[0,0,0,0,0,0,0,0,0,0,0,0,0,0,0,0,0],"id":7,"left_children":[1,-1,3,5,7,9,11,13,15,-1,-1,-1,-1,-1,-1,-1,-1],"loss_changes":[6.984722E1,0E0,4.1477737E0,3.3578873E0,1.1318684E0,7.22096E-2,1.2153881E0,1.1677895E0,1.7491987E0,0E0,0E0,0E0,0E0,0E0,0E0,0E0,0E0],"parents":[2147483647,0,0,2,2,3,3,4,4,5,5,6,6,7,7,8,8],"right_children":[2,-1,4,6,8,10,12,14,16,-1,-1,-1,-1,-1,-1,-1,-1],"split_conditions":[5.2795885E-4,-1.1941035E-1,-8.3305603E-1,-4.8274353E-1,1.211944E0,9.137716E-1,6.9285756E-1,-1.6151319E0,-6.5376633E-1,9.507582E-2,2.5320584E-2,4.145319E-3,-8.141991E-2,6.7892494E-3,1.0228928E-1,-2.5748337E-2,8.490785E-2],"split_indices":[0,0,7,4,4,0,0,6,3,0,0,0,0,0,0,0,0],"split_type":[0,0,0,0,0,0,0,0,0,0,0,0,0,0,0,0,0],"sum_hessian":[7.348433E1,2.9757425E1,4.3726902E1,8.7756605E0,3.495124E1,3.1986828E0,5.576978E0,3.0948097E1,4.0031447E0,2.0428035E0,1.155879E0,3.686432E0,1.8905462E0,1.4907569E0,2.945734E1,2.2053802E0,1.7977643E0],"tree_param":{"num_deleted":"0","num_feature":"10","num_nodes":"17","size_leaf_vector":"1"}},{"base_weights":[-3.5726514E-2,-1.16582036E-1,7.1615094E-1,9.973175E-2,8.234085E-1,-6.2007435E-2,4.6587577E-1,1.6879596E-1,9.1064686E-1,-1.1892606E-2,6.3967496E-2,5.1804107E-2,-3.6780525E-2,1.0674874E-1,5.470251E-2],"categories":[],"categories_nodes":[],"categories_segments":[],"categories_sizes":[],"default_left":[0,0,0,0,0,0,0,0,0,0,0,0,0,0,0],"id":8,"left_children":[1,-1,3,5,7,-1,9,11,13,-1,-1,-1,-1,-1,-1],"loss_changes":[6.21587E1,0E0,2.824154E0,2.305803E0,1.976656E0,0E0,6.4967537E-1,1.2427061E0,1.280405E0,0E0,0E0,0E0,0E0,0E0,0E0],"parents":[2147483647,0,0,2,2,3,3,4,4,6,6,7,7,8,8],"right_children":[2,-1,4,6,8,-1,10,12,14,-1,-1,-1,-1,-1,-1],"split_conditions":[5.2795885E-4,-1.16582036E-1,-1.1171864E0,-5.29467E-1,-1.1246421E0,-6.2007435E-2,-7.8778374E-1,6.5436566E-1,4.8937455E-1,-1.1892606E-2,6.3967496E-2,5.1804107E-2,-3.6780525E-2,1.0674874E-1,5.470251E-2],"split_indices":[0,0,3,7,1,0,6,0,3,0,0,0,0,0,0],"split_type":[0,0,0,0,0,0,0,0,0,0,0,0,0,0,0],"sum_hessian":[7.117178E1,2.8214308E1,4.2957478E1,6.6528354E0,3.630464E1,2.0092688E0,4.6435666E0,4.614395E0,3.1690245E1,1.1361984E0,3.5073683E0,2.8161206E0,1.7982746E0,2.0788054E1,1.0902192E1],"tree_param":{"num_deleted":"0","num_feature":"10","num_nodes":"15","size_leaf_vector":"1"}},{"base_weights":[4.512527E-3,-1.1387769E-1,6.9965506E-1,1.4320782E-1,-1.1836336E-1],"categories":[],"categories_nodes":[],"categories_segments":[],"categories_sizes":[],"default_left":[0,0,0,0,0],"id":9,"left_children":[1,-1,3,-1,-1],"loss_changes":[5.5159763E1,0E0,6.122554E1,0E0,0E0],"parents":[2147483647,0,0,2,2],"right_children":[2,-1,4,-1,-1],"split_conditions":[5.2795885E-4,-1.1387769E-1,4.9403018E-1,1.4320782E-1,-1.1836336E-1],"split_indices":[0,0,2,0,0],"split_type":[0,0,0,0,0],"sum_hessian":[6.740274E1,2.5244816E1,4.2157925E1,3.0525822E1,1.1632102E1],"tree_param":{"num_deleted":"0","num_feature":"10","num_nodes":"5","size_leaf_vector":"1"}},{"base_weights":[1.37819685E-2,4.4052088E-1,-1.14912085E-1,5.19626E-1,1.6298223E-1,2.8859928E-1,6.144941E-1,-3.90254E-1,5.3842735E-1,3.7677612E-2,-3.5872076E-2,6.85232E-2,9.739999E-3,-8.360737E-2,2.5476921E-2,1.704768E-2,7.877996E-2],"categories":[],"categories_nodes":[],"categories_segments":[],"categories_sizes":[],"default_left":[0,0,0,0,0,0,0,0,0,0,0,0,0,0,0,0,0],"id":10,"left_children":[1,3,-1,5,7,9,11,13,15,-1,-1,-1,-1,-1,-1,-1,-1],"loss_changes":[3.3493713E1,9.987993E-1,0E0,6.543617E-1,2.7864032E0,8.7330806E-1,8.84861E-1,1.8216791E0,5.822377E-1,0E0,0E0,0E0,0E0,0E0,0E0,0E0,0E0],"parents":[2147483647,0,0,1,1,3,3,4,4,5,5,6,6,7,7,8,8],"right_children":[2,4,-1,6,8,10,12,14,16,-1,-1,-1,-1,-1,-1,-1,-1],"split_conditions":[4.961992E-1,7.6608026E-1,-1.14912085E-1,-5.3804773E-1,-4.129978E-1,-6.097829E-1,1.1033019E0,1.1168338E0,7.7368304E-2,3.7677612E-2,-3.5872076E-2,6.85232E-2,9.739999E-3,-8.360737E-2,2.5476921E-2,1.704768E-2,7.877996E-2],"split_indices":[2,8,0,1,2,1,5,8,2,0,0,0,0,0,0,0,0],"split_type":[0,0,0,0,0,0,0,0,0,0,0,0,0,0,0,0,0],"sum_hessian":[6.547277E1,4.835105E1,1.7121717E1,3.6947784E1,1.1403264E1,1.1932168E1,2.5015617E1,4.5941386E0,6.8091254E0,1.086949E1,1.0626792E0,2.1719284E1,3.2963345E0,2.5414069E0,2.0527318E0,3.4307108E0,3.3784146E0],"tree_param":{"num_deleted":"0","num_feature":"10","num_nodes":"17","size_leaf_vector":"1"}},{"base_weights":[-1.649395E-2,-1.120517E-1,6.782081E-1,-3.9950665E-2,7.4729186E-1,-3.955802E-2,3.25994E-2,2.7777841E-2,8.4893614E-1,4.72353E-2,-5.006505E-2,9.857803E-2,2.93297E-2],"categories":[],"categories_nodes":[],"categories_segments":[],"categories_sizes":[],"default_left":[0,0,0,0,0,0,0,0,0,0,0,0,0],"id":11,"left_children":[1,-1,3,5,7,-1,-1,9,11,-1,-1,-1,-1],"loss_changes":[5.0363705E1,0E0,2.0302238E0,7.1295583E-1,2.670105E0,0E0,0E0,1.5504112E0,2.1621914E0,0E0,0E0,0E0,0E0],"parents":[2147483647,0,0,2,2,3,3,4,4,7,7,8,8],"right_children":[2,-1,4,6,8,-1,-1,10,12,-1,-1,-1,-1],"split_conditions":[5.2795885E-4,-1.120517E-1,-1.2767485E0,2.8119144E-1,-1.0909665E0,-3.955802E-2,3.25994E-2,-1.3650218E0,8.623935E-1,4.72353E-2,-5.006505E-2,9.857803E-2,2.93297E-2],"split_indices":[0,0,3,1,8,0,0,8,3,0,0,0,0],"split_type":[0,0,0,0,0,0,0,0,0,0,0,0,0],"sum_hessian":[6.3675213E1,2.4355852E1,3.931936E1,3.487443E0,3.5831917E1,1.7275778E0,1.7598653E0,4.592939E0,3.1238977E1,2.55201E0,2.040929E0,2.4444572E1,6.794405E0],"tree_param":{"num_deleted":"0","num_feature":"10","num_nodes":"13","size_leaf_vector":"1"}},{"base_weights":[-5.875288E-2,-1.10053815E-1,5.99119E-1,1.2075889E-1,7.639456E-1,-6.656725E-2,2.9170337E-1,8.21814E-1,1.9040135E-1,5.0517585E-2,-5.0867844E-2,2.8047385E-3,8.616131E-2,-4.129904E-2,5.9716262E-2],"categories":[],"categories_nodes":[],"categories_segments":[],"categories_sizes":[],"default_left":[0,0,0,0,0,0,0,0,0,0,0,0,0,0,0],"id":12,"left_children":[1,-1,3,5,7,-1,9,11,13,-1,-1,-1,-1,-1,-1],"loss_changes":[4.208867E1,0E0,2.8801756E0,1.6526346E0,7.678776E-1,0E0,1.8984035E0,7.654953E-1,1.1925343E0,0E0,0E0,0E0,0E0,0E0,0E0],"parents":[2147483647,0,0,2,2,3,3,4,4,6,6,7,7,8,8],"right_children":[2,-1,4,6,8,-1,10,12,14,-1,-1,-1,-1,-1,-1],"split_conditions":[5.2795885E-4,-1.10053815E-1,-4.2811516E-1,-1.1171864E0,1.211944E0,-6.656725E-2,5.6677175E-1,-2.0392323E0,1.8433932E-2,5.0517585E-2,-5.0867844E-2,2.8047385E-3,8.616131E-2,-4.129904E-2,5.9716262E-2],"split_indices":[0,0,7,3,4,0,3,1,6,0,0,0,0,0,0],"split_type":[0,0,0,0,0,0,0,0,0,0,0,0,0,0,0],"sum_hessian":[5.9448875E1,2.2749928E1,3.6698948E1,9.848691E0,2.6850256E1,1.2417814E0,8.60691E0,2.3996256E1,2.8540003E0,7.0858507E0,1.5210589E0,1.2271073E0,2.2769148E1,1.1430622E0,1.7109382E0],"tree_param":{"num_deleted":"0","num_feature":"10","num_nodes":"15","size_leaf_vector":"1"}},{"base_weights":[4.7947066E-3,-1.0748472E-1,5.4599214E-1,1.2937628E-1,-1.1440895E-1],"categories":[],"categories_nodes":[],"categories_segments":[],"categories_sizes":[],"default_left":[0,0,0,0,0],"id":13,"left_children":[1,-1,3,-1,-1],"loss_changes":[3.404392E1,0E0,5.05206E1,0E0,0E0],"parents":[2147483647,0,0,2,2],"right_children":[2,-1,4,-1,-1],"split_conditions":[5.2795885E-4,-1.0748472E-1,4.9120766E-1,1.2937628E-1,-1.1440895E-1],"split_indices":[0,0,2,0,0],"split_type":[0,0,0,0,0],"sum_hessian":[5.626013E1,1.8455986E1,3.7804146E1,2.637092E1,1.1433224E1],"tree_param":{"num_deleted":"0","num_feature":"10","num_nodes":"5","size_leaf_vector":"1"}},{"base_weights":[-6.570961E-2,-1.06492795E-1,5.0182956E-1,1.2492936E-1,-1.1159771E-1],"categories":[],"categories_nodes":[],"categories_segments":[],"categories_sizes":[],"default_left":[0,0,0,0,0],"id":14,"left_children":[1,-1,3,-1,-1],"loss_changes":[3.1379524E1,0E0,4.4163563E1,0E0,0E0],"parents":[2147483647,0,0,2,2],"right_children":[2,-1,4,-1,-1],"split_conditions":[5.2795885E-4,-1.06492795E-1,4.9403018E-1,1.2492936E-1,-1.1159771E-1],"split_indices":[0,0,2,0,0],"split_type":[0,0,0,0,0],"sum_hessian":[5.3391384E1,1.9022926E1,3.4368454E1,2.3663267E1,1.070519E1],"tree_param":{"num_deleted":"0","num_feature":"10","num_nodes":"5","size_leaf_vector":"1"}},{"base_weights":[4.6812627E-2,-1.0450859E-1,5.9714514E-1,1.2203502E-1,-1.078036E-1],"categories":[],"categories_nodes":[],"categories_segments":[],"categories_sizes":[],"default_left":[0,0,0,0,0],"id":15,"left_children":[1,-1,3,-1,-1],"loss_changes":[3.1342236E1,0E0,3.7463623E1,0E0,0E0],"parents":[2147483647,0,0,2,2],"right_children":[2,-1,4,-1,-1],"split_conditions":[5.2795885E-4,-1.0450859E-1,4.961992E-1,1.2203502E-1,-1.078036E-1],"split_indices":[0,0,2,0,0],"split_type":[0,0,0,0,0],"sum_hessian":[5.0119648E1,1.6494463E1,3.3625183E1,2.4705643E1,8.919542E0],"tree_param":{"num_deleted":"0","num_feature":"10","num_nodes":"5","size_leaf_vector":"1"}},{"base_weights":[9.48983E-3,-1.0315406E-1,5.5114025E-1,1.18811384E-1,-1.0553781E-1],"categories":[],"categories_nodes":[],"categories_segments":[],"categories_sizes":[],"default_left":[0,0,0,0,0],"id":16,"left_children":[1,-1,3,-1,-1],"loss_changes":[2.7207579E1,0E0,3.371987E1,0E0,0E0],"parents":[2147483647,0,0,2,2],"right_children":[2,-1,4,-1,-1],"split_conditions":[5.2795885E-4,-1.0315406E-1,4.961992E-1,1.18811384E-1,-1.0553781E-1],"split_indices":[0,0,2,0,0],"split_type":[0,0,0,0,0],"sum_hessian":[4.624287E1,1.5516444E1,3.0726425E1,2.2189056E1,8.537368E0],"tree_param":{"num_deleted":"0","num_feature":"10","num_nodes":"5","size_leaf_vector":"1"}},{"base_weights":[-1.2696306E-2,3.9383927E-1,-1.0421707E-1,5.9660744E-2,5.348837E-1,1.6184159E-1,-3.7181076E-2,-1.1124924E-2,5.752101E-1,-3.617613E-3,5.7381835E-2,2.4754902E-2,6.790125E-2],"categories":[],"categories_nodes":[],"categories_segments":[],"categories_sizes":[],"default_left":[0,0,0,0,0,0,0,0,0,0,0,0,0],"id":17,"left_children":[1,3,-1,5,7,9,-1,-1,11,-1,-1,-1,-1],"loss_changes":[1.8918573E1,1.4966054E0,0E0,5.3413945E-1,6.5491533E-1,7.866766E-1,0E0,0E0,5.634613E-1,0E0,0E0,0E0,0E0],"parents":[2147483647,0,0,1,1,3,3,4,4,5,5,8,8],"right_children":[2,4,-1,6,8,10,-1,-1,12,-1,-1,-1,-1],"split_conditions":[4.961992E-1,-3.092124E-1,-1.0421707E-1,6.8195295E-1,-1.6151319E0,3.6659825E-1,-3.7181076E-2,-1.1124924E-2,-5.353167E-1,-3.617613E-3,5.7381835E-2,2.4754902E-2,6.790125E-2],"split_indices":[2,7,0,6,6,6,0,0,3,0,0,0,0],"split_type":[0,0,0,0,0,0,0,0,0,0,0,0,0],"sum_hessian":[4.322301E1,3.1429182E1,1.179383E1,9.750402E0,2.167878E1,8.388702E0,1.3617E0,1.1702148E0,2.0508564E1,6.281616E0,2.1070867E0,5.7483206E0,1.4760243E1],"tree_param":{"num_deleted":"0","num_feature":"10","num_nodes":"13","size_leaf_vector":"1"}},{"base_weights":[-2.01567E-2,-1.0150259E-1,5.045018E-1,1.1456712E-1,-1.014385E-1],"categories":[],"categories_nodes":[],"categories_segments":[],"categories_sizes":[],"default_left":[0,0,0,0,0],"id":18,"left_children":[1,-1,3,-1,-1],"loss_changes":[2.2141367E1,0E0,2.8234035E1,0E0,0E0],"parents":[2147483647,0,0,2,2],"right_children":[2,-1,4,-1,-1],"split_conditions":[5.2795885E-4,-1.0150259E-1,4.961992E-1,1.1456712E-1,-1.014385E-1],"split_indices":[0,0,2,0,0],"split_type":[0,0,0,0,0],"sum_hessian":[4.043807E1,1.363964E1,2.6798428E1,1.9016632E1,7.781796E0],"tree_param":{"num_deleted":"0","num_feature":"10","num_nodes":"5","size_leaf_vector":"1"}},{"base_weights":[-3.265729E-2,3.202332E-1,-1.00347735E-1,-1.1956975E-1,3.628204E-1,-3.4044437E-2,1.8156035E-2,4.9703762E-1,1.8735051E-1,1.164024E-2,5.8376838E-2,-4.453358E-3,3.637399E-2],"categories":[],"categories_nodes":[],"categories_segments":[],"categories_sizes":[],"default_left":[0,0,0,0,0,0,0,0,0,0,0,0,0],"id":19,"left_children":[1,3,-1,5,7,-1,-1,9,11,-1,-1,-1,-1],"loss_changes":[1.3422301E1,5.82881E-1,0E0,2.8097197E-1,5.311942E-1,0E0,0E0,4.0793085E-1,5.517619E-1,0E0,0E0,0E0,0E0],"parents":[2147483647,0,0,1,1,3,3,4,4,7,7,8,8],"right_children":[2,4,-1,6,8,-1,-1,10,12,-1,-1,-1,-1],"split_conditions":[4.961992E-1,-1.2390527E0,-1.00347735E-1,2.2907469E-1,1.8106274E-1,-3.4044437E-2,1.8156035E-2,-6.518361E-1,-4.6531045E-1,1.164024E-2,5.8376838E-2,-4.453358E-3,3.637399E-2],"split_indices":[2,3,0,6,8,0,0,4,2,0,0,0,0],"split_type":[0,0,0,0,0,0,0,0,0,0,0,0,0],"sum_hessian":[3.7240562E1,2.780402E1,9.436544E0,2.2950568E0,2.5508963E1,1.2486409E0,1.0464158E0,1.341511E1,1.2093853E1,2.9241238E0,1.0490986E1,5.5479555E0,6.5458975E0],"tree_param":{"num_deleted":"0","num_feature":"10","num_nodes":"13","size_leaf_vector":"1"}},{"base_weights":[-3.4261383E-2,-1.0040076E-1,5.018019E-1,1.1139577E-1,-9.758377E-2],"categories":[],"categories_nodes":[],"categories_segments":[],"categories_sizes":[],"default_left":[0,0,0,0,0],"id":20,"left_children":[1,-1,3,-1,-1],"loss_changes":[2.035567E1,0E0,2.3935823E1,0E0,0E0],"parents":[2147483647,0,0,2,2],"right_children":[2,-1,4,-1,-1],"split_conditions":[5.2795885E-4,-1.0040076E-1,4.961992E-1,1.1139577E-1,-9.758377E-2],"split_indices":[0,0,2,0,0],"split_type":[0,0,0,0,0],"sum_hessian":[3.7188007E1,1.2928052E1,2.4259956E1,1.7327608E1,6.932348E0],"tree_param":{"num_deleted":"0","num_feature":"10","num_nodes":"5","size_leaf_vector":"1"}},{"base_weights":[-3.850666E-2,2.8035542E-1,-9.660177E-2,3.4169608E-1,-8.913043E-2,3.9494786E-1,-1.9657394E-2,-2.8399378E-1,2.3589721E-2,1.0055417E-2,5.2131023E-2,-4.293626E-2,-1.7313348E-3],"categories":[],"categories_nodes":[],"categories_segments":[],"categories_sizes":[],"default_left":[0,0,0,0,0,0,0,0,0,0,0,0,0],"id":21,"left_children":[1,3,-1,5,7,9,-1,11,-1,-1,-1,-1,-1],"loss_changes":[1.0105871E1,6.089039E-1,0E0,7.1097183E-1,3.4737828E-1,7.078965E-1,0E0,1.17450416E-1,0E0,0E0,0E0,0E0,0E0],"parents":[2147483647,0,0,1,1,3,3,4,4,5,5,7,7],"right_children":[2,4,-1,6,8,10,-1,12,-1,-1,-1,-1,-1],"split_conditions":[4.961992E-1,1.1033019E0,-9.660177E-2,1.3183023E0,5.8636403E-1,-3.870997E-1,-1.9657394E-2,1.6163E0,2.3589721E-2,1.0055417E-2,5.2131023E-2,-4.293626E-2,-1.7313348E-3],"split_indices":[2,5,0,7,7,7,0,5,0,0,0,0,0],"split_type":[0,0,0,0,0,0,0,0,0,0,0,0,0],"sum_hessian":[3.22548E1,2.452222E1,7.732578E0,2.1095276E1,3.4269466E0,1.9438465E1,1.6568091E0,2.2214007E0,1.2055459E0,6.3771095E0,1.3061357E1,1.0428897E0,1.178511E0],"tree_param":{"num_deleted":"0","num_feature":"10","num_nodes":"13","size_leaf_vector":"1"}},{"base_weights":[-4.6251275E-2,-9.885553E-2,5.190644E-1,1.3938095E-1,5.8486134E-1,3.8004134E-2,-2.4780024E-2,6.133987E-1,8.39331E-3,3.0472448E-2,6.827722E-2],"categories":[],"categories_nodes":[],"categories_segments":[],"categories_sizes":[],"default_left":[0,0,0,0,0,0,0,0,0,0,0],"id":22,"left_children":[1,-1,3,5,7,-1,-1,9,-1,-1,-1],"loss_changes":[1.7640703E1,0E0,4.3690395E-1,5.021036E-1,1.9687986E-1,0E0,0E0,1.4053822E-1,0E0,0E0,0E0],"parents":[2147483647,0,0,2,2,3,3,4,4,7,7],"right_children":[2,-1,4,6,8,-1,-1,10,-1,-1,-1],"split_conditions":[5.2795885E-4,-9.885553E-2,-7.5828207E-1,6.9285756E-1,1.4960443E0,3.8004134E-2,-2.4780024E-2,-6.1223674E-1,8.39331E-3,3.0472448E-2,6.827722E-2],"split_indices":[0,0,7,0,9,0,0,3,0,0,0],"split_type":[0,0,0,0,0,0,0,0,0,0,0],"sum_hessian":[3.1152433E1,1.1400567E1,1.9751865E1,3.3779023E0,1.6373964E1,2.0944777E0,1.2834249E0,1.5279012E1,1.0949517E0,3.7933226E0,1.1485689E1],"tree_param":{"num_deleted":"0","num_feature":"10","num_nodes":"11","size_leaf_vector":"1"}},{"base_weights":[9.7804805E-3,-9.755512E-2,5.0581574E-1,1.0798403E-1,-9.447522E-2],"categories":[],"categories_nodes":[],"categories_segments":[],"categories_sizes":[],"default_left":[0,0,0,0,0],"id":23,"left_children":[1,-1,3,-1,-1],"loss_changes":[1.689368E1,0E0,2.0152704E1,0E0,0E0],"parents":[2147483647,0,0,2,2],"right_children":[2,-1,4,-1,-1],"split_conditions":[5.2795885E-4,-9.755512E-2,4.961992E-1,1.0798403E-1,-9.447522E-2],"split_indices":[0,0,2,0,0],"split_type":[0,0,0,0,0],"sum_hessian":[3.2554825E1,1.0577275E1,2.197755E1,1.5929457E1,6.0480943E0],"tree_param":{"num_deleted":"0","num_feature":"10","num_nodes":"5","size_leaf_vector":"1"}},{"base_weights":[-5.0292794E-2,2.6616272E-1,-9.4668545E-2,-1.5261933E-1,3.484629E-1,1.8904943E-2,-3.4095164E-2,3.793342E-1,-1.0939506E-2,-1.8792322E-2,2.0217193E-2,4.1440662E-2,-2.1246204E-3],"categories":[],"categories_nodes":[],"categories_segments":[],"categories_sizes":[],"default_left":[0,0,0,0,0,0,0,0,0,0,0,0,0],"id":24,"left_children":[1,3,-1,5,7,9,-1,11,-1,-1,-1,-1,-1],"loss_changes":[8.932226E0,8.5955966E-1,0E0,1.530445E-1,3.221872E-1,1.6393253E-1,0E0,2.733214E-1,0E0,0E0,0E0,0E0,0E0],"parents":[2147483647,0,0,1,1,3,3,4,4,5,5,7,7],"right_children":[2,4,-1,6,8,10,-1,12,-1,-1,-1,-1,-1],"split_conditions":[4.961992E-1,-8.639908E-1,-9.4668545E-2,3.9069593E-1,1.6246785E0,-3.8834694E-1,-3.4095164E-2,1.2289805E0,-1.0939506E-2,-1.8792322E-2,2.0217193E-2,4.1440662E-2,-2.1246204E-3],"split_indices":[2,7,0,8,7,8,0,9,0,0,0,0,0],"split_type":[0,0,0,0,0,0,0,0,0,0,0,0,0],"sum_hessian":[2.9600004E1,2.239642E1,7.2035847E0,3.5381634E0,1.8858257E1,2.3225303E0,1.2156333E0,1.7827717E1,1.03054E0,1.0791903E0,1.2433399E0,1.6360752E1,1.4669641E0],"tree_param":{"num_deleted":"0","num_feature":"10","num_nodes":"13","size_leaf_vector":"1"}},{"base_weights":[-2.3208447E-2,2.7327418E-1,-9.2787735E-2,1.721375E-2,3.2745293E-1,1.635252E-1,-2.8182298E-2,3.6720932E-1,-7.024694E-3,-5.5620666E-3,2.9176807E-2,2.1255737E-2,5.271989E-2],"categories":[],"categories_nodes":[],"categories_segments":[],"categories_sizes":[],"default_left":[0,0,0,0,0,0,0,0,0,0,0,0,0],"id":25,"left_children":[1,3,-1,5,7,9,-1,11,-1,-1,-1,-1,-1],"loss_changes":[8.16546E0,3.132956E-1,0E0,2.679211E-1,3.2492828E-1,1.2969276E-1,0E0,3.1748152E-1,0E0,0E0,0E0,0E0,0E0],"parents":[2147483647,0,0,1,1,3,3,4,4,5,5,7,7],"right_children":[2,4,-1,6,8,10,-1,12,-1,-1,-1,-1,-1],"split_conditions":[4.961992E-1,-8.639908E-1,-9.2787735E-2,6.2271124E-1,1.4473057E0,-1.6036008E-1,-2.8182298E-2,-1.23344064E-1,-7.024694E-3,-5.5620666E-3,2.9176807E-2,2.1255737E-2,5.271989E-2],"split_indices":[2,7,0,9,7,9,0,2,0,0,0,0,0],"split_type":[0,0,0,0,0,0,0,0,0,0,0,0,0],"sum_hessian":[2.8497934E1,2.198939E1,6.5085444E0,4.070247E0,1.7919144E1,3.03732E0,1.0329272E0,1.6360336E1,1.5588068E0,1.3303162E0,1.7070038E0,9.502975E0,6.8573604E0],"tree_param":{"num_deleted":"0","num_feature":"10","num_nodes":"13","size_leaf_vector":"1"}},{"base_weights":[-2.2440441E-2,-9.654684E-2,5.0950205E-1,1.9875515E-1,5.981826E-1,3.6795843E-1,-2.9430011E-2,6.904619E-2,3.042586E-1,5.2156128E-2,7.612703E-5,-3.6012884E-3,4.8296336E-2],"categories":[],"categories_nodes":[],"categories_segments":[],"categories_sizes":[],"default_left":[0,0,0,0,0,0,0,0,0,0,0,0,0],"id":26,"left_children":[1,-1,3,5,7,9,-1,-1,11,-1,-1,-1,-1],"loss_changes":[1.4976693E1,0E0,4.078908E-1,5.87301E-1,1.7979527E-1,2.6577348E-1,0E0,0E0,3.3495697E-1,0E0,0E0,0E0,0E0],"parents":[2147483647,0,0,2,2,3,3,4,4,5,5,8,8],"right_children":[2,-1,4,6,8,10,-1,-1,12,-1,-1,-1,-1],"split_conditions":[5.2795885E-4,-9.654684E-2,-5.2286005E-1,9.382838E-1,5.268979E-1,1.2637958E-1,-2.9430011E-2,6.904619E-2,-2.2431897E-1,5.2156128E-2,7.612703E-5,-3.6012884E-3,4.8296336E-2],"split_indices":[0,0,7,0,3,4,0,0,5,0,0,0,0],"split_type":[0,0,0,0,0,0,0,0,0,0,0,0,0],"sum_hessian":[2.7875057E1,9.759111E0,1.8115946E1,4.7417073E0,1.3374238E1,3.7191226E0,1.0225849E0,9.151842E0,4.2223954E0,2.32582E0,1.3933027E0,1.728892E0,2.4935036E0],"tree_param":{"num_deleted":"0","num_feature":"10","num_nodes":"13","size_leaf_vector":"1"}},{"base_weights":[8.678933E-3,-9.4865546E-2,5.052611E-1,1.0402103E-1,-8.908959E-2],"categories":[],"categories_nodes":[],"categories_segments":[],"categories_sizes":[],"default_left":[0,0,0,0,0],"id":27,"left_children":[1,-1,3,-1,-1],"loss_changes":[1.3545809E1,0E0,1.4930878E1,0E0,0E0],"parents":[2147483647,0,0,2,2],"right_children":[2,-1,4,-1,-1],"split_conditions":[5.2795885E-4,-9.4865546E-2,4.961992E-1,1.0402103E-1,-8.908959E-2],"split_indices":[0,0,2,0,0],"split_type":[0,0,0,0,0],"sum_hessian":[2.6485533E1,8.735145E0,1.775039E1,1.3017553E1,4.732836E0],"tree_param":{"num_deleted":"0","num_feature":"10","num_nodes":"5","size_leaf_vector":"1"}},{"base_weights":[-4.5645308E-2,-9.404155E-2,4.4495386E-1,1.01733126E-1,-8.843366E-2],"categories":[],"categories_nodes":[],"categories_segments":[],"categories_sizes":[],"default_left":[0,0,0,0,0],"id":28,"left_children":[1,-1,3,-1,-1],"loss_changes":[1.1603878E1,0E0,1.3937836E1,0E0,0E0],"parents":[2147483647,0,0,2,2],"right_children":[2,-1,4,-1,-1],"split_conditions":[5.2795885E-4,-9.404155E-2,4.9403018E-1,1.01733126E-1,-8.843366E-2],"split_indices":[0,0,2,0,0],"split_type":[0,0,0,0,0],"sum_hessian":[2.4480892E1,8.344699E0,1.6136194E1,1.1443454E1,4.6927404E0],"tree_param":{"num_deleted":"0","num_feature":"10","num_nodes":"5","size_leaf_vector":"1"}},{"base_weights":[-1.3293405E-2,2.327635E-1,-6.434587E-2,3.919707E-4,4.1017126E-2,2.8411463E-2,-2.4746716E-1,-1.3849911E-1,1.7178002E-1,-4.032785E-1,1.6229892E-2,-2.2550244E-3,-3.71332E-2,-5.2014E-3,2.5064731E-2,-1.4434534E-2,-4.8463505E-2,2.4874829E-2,-2.8476417E-2],"categories":[],"categories_nodes":[],"categories_segments":[],"categories_sizes":[],"default_left":[0,0,0,0,0,0,0,0,0,0,0,0,0,0,0,0,0,0,0],"id":29,"left_children":[1,3,5,-1,-1,7,9,11,13,15,17,-1,-1,-1,-1,-1,-1,-1,-1],"loss_changes":[3.1020728E-1,1.7113811E-1,3.509469E-1,0E0,0E0,3.6686248E-1,2.9048127E-1,1.8541005E-1,1.5703592E-1,2.236867E-2,3.1774822E-1,0E0,0E0,0E0,0E0,0E0,0E0,0E0,0E0],"parents":[2147483647,0,0,1,1,2,2,5,5,6,6,7,7,8,8,9,9,10,10],"right_children":[2,4,6,-1,-1,8,10,12,14,16,18,-1,-1,-1,-1,-1,-1,-1,-1],"split_conditions":[-9.871795E-1,4.283071E-1,4.977431E-1,3.919707E-4,4.1017126E-2,-5.353167E-1,1.1254348E0,5.8529943E-1,-5.047749E-1,-2.0219265E-1,1.9063559E-1,-2.2550244E-3,-3.71332E-2,-5.2014E-3,2.5064731E-2,-1.4434534E-2,-4.8463505E-2,2.4874829E-2,-2.8476417E-2],"split_indices":[9,5,3,0,0,3,3,9,7,9,6,0,0,0,0,0,0,0,0],"split_type":[0,0,0,0,0,0,0,0,0,0,0,0,0,0,0,0,0,0,0],"sum_hessian":[2.250218E1,3.2549653E0,1.9247215E1,1.8677678E0,1.3871974E0,1.3336607E1,5.910608E0,6.1780486E0,7.1585584E0,3.3825984E0,2.5280094E0,4.8564353E0,1.3216136E0,1.9540961E0,5.204462E0,1.4719765E0,1.910622E0,1.5241661E0,1.0038433E0],"tree_param":{"num_deleted":"0","num_feature":"10","num_nodes":"19","size_leaf_vector":"1"}},{"base_weights":[-4.046946E-2,2.3752557E-1,-8.7692015E-2,2.776202E-1,-8.826501E-3,-4.7339606E-3,3.1570303E-1,9.024556E-3,3.820618E-2],"categories":[],"categories_nodes":[],"categories_segments":[],"categories_sizes":[],"default_left":[0,0,0,0,0,0,0,0,0],"id":30,"left_children":[1,3,-1,5,-1,-1,7,-1,-1],"loss_changes":[5.4996257E0,2.578795E-1,0E0,2.1480238E-1,0E0,0E0,1.8374121E-1,0E0,0E0],"parents":[2147483647,0,0,1,1,3,3,6,6],"right_children":[2,4,-1,6,-1,-1,8,-1,-1],"split_conditions":[4.9120766E-1,1.2289805E0,-8.7692015E-2,-1.2002964E0,-8.826501E-3,-4.7339606E-3,-5.3804773E-1,9.024556E-3,3.820618E-2],"split_indices":[2,9,0,4,0,0,1,0,0],"split_type":[0,0,0,0,0,0,0,0,0],"sum_hessian":[2.175558E1,1.6866137E1,4.889443E0,1.5149558E1,1.716579E0,1.5636772E0,1.3585881E1,3.6260717E0,9.959809E0],"tree_param":{"num_deleted":"0","num_feature":"10","num_nodes":"9","size_leaf_vector":"1"}},{"base_weights":[-7.5881174E-3,-9.2744276E-2,5.107908E-1,5.082048E-3,5.5282867E-1,1.9856851E-1,5.999083E-1,9.91238E-4,2.977604E-2,1.880621E-2,6.500389E-2],"categories":[],"categories_nodes":[],"categories_segments":[],"categories_sizes":[],"default_left":[0,0,0,0,0,0,0,0,0,0,0],"id":31,"left_children":[1,-1,3,-1,5,7,9,-1,-1,-1,-1],"loss_changes":[1.1403596E1,0E0,2.6784492E-1,0E0,1.1307621E-1,5.558166E-2,1.2125683E-1,0E0,0E0,0E0,0E0],"parents":[2147483647,0,0,2,2,4,4,5,5,6,6],"right_children":[2,-1,4,-1,6,8,10,-1,-1,-1,-1],"split_conditions":[5.2795885E-4,-9.2744276E-2,-1.4162271E0,5.082048E-3,-1.0909665E0,4.8186606E-1,-1.1171864E0,9.91238E-4,2.977604E-2,1.880621E-2,6.500389E-2],"split_indices":[0,0,1,0,8,0,3,0,0,0,0],"split_type":[0,0,0,0,0,0,0,0,0,0,0],"sum_hessian":[2.192178E1,7.6167917E0,1.4304989E1,1.3828644E0,1.2922124E1,2.1279147E0,1.07942095E1,1.1123097E0,1.0156051E0,1.6869085E0,9.107301E0],"tree_param":{"num_deleted":"0","num_feature":"10","num_nodes":"11","size_leaf_vector":"1"}},{"base_weights":[2.883575E-3,-9.155353E-2,4.9598897E-1,9.9688485E-2,-8.345547E-2],"categories":[],"categories_nodes":[],"categories_segments":[],"categories_sizes":[],"default_left":[0,0,0,0,0],"id":32,"left_children":[1,-1,3,-1,-1],"loss_changes":[1.0471172E1,0E0,1.08558E1,0E0,0E0],"parents":[2147483647,0,0,2,2],"right_children":[2,-1,4,-1,-1],"split_conditions":[5.2795885E-4,-9.155353E-2,4.961992E-1,9.9688485E-2,-8.345547E-2],"split_indices":[0,0,2,0,0],"split_type":[0,0,0,0,0],"sum_hessian":[2.1118746E1,7.0784025E0,1.4040342E1,1.0382515E1,3.657828E0],"tree_param":{"num_deleted":"0","num_feature":"10","num_nodes":"5","size_leaf_vector":"1"}},{"base_weights":[-5.2558426E-2,-9.01994E-2,4.379478E-1,9.700372E-2,-8.1869535E-2],"categories":[],"categories_nodes":[],"categories_segments":[],"categories_sizes":[],"default_left":[0,0,0,0,0],"id":33,"left_children":[1,-1,3,-1,-1],"loss_changes":[8.536618E0,0E0,9.527035E0,0E0,0E0],"parents":[2147483647,0,0,2,2],"right_children":[2,-1,4,-1,-1],"split_conditions":[5.2795885E-4,-9.01994E-2,4.961992E-1,9.700372E-2,-8.1869535E-2],"split_indices":[0,0,2,0,0],"split_type":[0,0,0,0,0],"sum_hessian":[1.8540438E1,6.4799175E0,1.206052E1,8.633139E0,3.4273813E0],"tree_param":{"num_deleted":"0","num_feature":"10","num_nodes":"5","size_leaf_vector":"1"}},{"base_weights":[-8.1503324E-2,-8.891406E-2,3.9748338E-1,1.1000258E-3,4.344422E-1,1.1023025E-2,4.6578157E-1,1.3713576E-2,5.04294E-2],"categories":[],"categories_nodes":[],"categories_segments":[],"categories_sizes":[],"default_left":[0,0,0,0,0,0,0,0,0],"id":34,"left_children":[1,-1,3,-1,5,-1,7,-1,-1],"loss_changes":[7.2744493E0,0E0,1.655066E-1,0E0,5.8949947E-2,0E0,5.219984E-2,0E0,0E0],"parents":[2147483647,0,0,2,2,4,4,6,6],"right_children":[2,-1,4,-1,6,-1,8,-1,-1],"split_conditions":[5.2795885E-4,-8.891406E-2,-1.4358622E0,1.1000258E-3,-1.2096947E0,1.1023025E-2,-8.807541E-1,1.3713576E-2,5.04294E-2],"split_indices":[0,0,1,0,8,0,6,0,0],"split_type":[0,0,0,0,0,0,0,0,0],"sum_hessian":[1.6890848E1,5.969373E0,1.0921475E1,1.0665069E0,9.854969E0,1.2668164E0,8.588152E0,1.3792374E0,7.2089148E0],"tree_param":{"num_deleted":"0","num_feature":"10","num_nodes":"9","size_leaf_vector":"1"}},{"base_weights":[-2.2004215E-2,-8.7407105E-2,4.095285E-1,9.581948E-2,-8.200362E-2],"categories":[],"categories_nodes":[],"categories_segments":[],"categories_sizes":[],"default_left":[0,0,0,0,0],"id":35,"left_children":[1,-1,3,-1,-1],"loss_changes":[7.053421E0,0E0,9.399635E0,0E0,0E0],"parents":[2147483647,0,0,2,2],"right_children":[2,-1,4,-1,-1],"split_conditions":[5.2795885E-4,-8.7407105E-2,4.961992E-1,9.581948E-2,-8.200362E-2],"split_indices":[0,0,2,0,0],"split_type":[0,0,0,0,0],"sum_hessian":[1.7209301E1,5.4408236E0,1.1768478E1,8.289967E0,3.4785116E0],"tree_param":{"num_deleted":"0","num_feature":"10","num_nodes":"5","size_leaf_vector":"1"}},{"base_weights":[-1.7886573E-2,2.743535E-1,-8.184073E-2,3.1769982E-1,2.4298043E-3,3.5789165E-1,-3.4690704E-3,1.275509E-2,4.2736914E-2],"categories":[],"categories_nodes":[],"categories_segments":[],"categories_sizes":[],"default_left":[0,0,0,0,0,0,0,0,0],"id":36,"left_children":[1,3,-1,5,-1,7,-1,-1,-1],"loss_changes":[4.0529203E0,1.303373E-1,0E0,1.6498876E-1,0E0,1.0165107E-1,0E0,0E0,0E0],"parents":[2147483647,0,0,1,1,3,3,5,5],"right_children":[2,4,-1,6,-1,8,-1,-1,-1],"split_conditions":[4.9120766E-1,7.114106E-1,-8.184073E-2,1.1081828E0,2.4298043E-3,-4.713157E-1,-3.4690704E-3,1.275509E-2,4.2736914E-2],"split_indices":[2,6,0,4,0,3,0,0,0],"split_type":[0,0,0,0,0,0,0,0,0],"sum_hessian":[1.53645315E1,1.1737055E1,3.6274772E0,9.772505E0,1.9645497E0,8.758002E0,1.014503E0,2.6866686E0,6.071333E0],"tree_param":{"num_deleted":"0","num_feature":"10","num_nodes":"9","size_leaf_vector":"1"}},{"base_weights":[-5.993984E-2,-8.6660706E-2,3.9486125E-1,9.344061E-2,-7.882234E-2],"categories":[],"categories_nodes":[],"categories_segments":[],"categories_sizes":[],"default_left":[0,0,0,0,0],"id":37,"left_children":[1,-1,3,-1,-1],"loss_changes":[6.3611736E0,0E0,7.8718605E0,0E0,0E0],"parents":[2147483647,0,0,2,2],"right_children":[2,-1,4,-1,-1],"split_conditions":[5.2795885E-4,-8.6660706E-2,4.961992E-1,9.344061E-2,-7.882234E-2],"split_indices":[0,0,2,0,0],"split_type":[0,0,0,0,0],"sum_hessian":[1.5406172E1,5.227985E0,1.0178186E1,7.134636E0,3.0435505E0],"tree_param":{"num_deleted":"0","num_feature":"10","num_nodes":"5","size_leaf_vector":"1"}},{"base_weights":[5.956621E-3,-8.433563E-2,4.4334778E-1,9.292088E-2,-7.5747184E-2],"categories":[],"categories_nodes":[],"categories_segments":[],"categories_sizes":[],"default_left":[0,0,0,0,0],"id":38,"left_children":[1,-1,3,-1,-1],"loss_changes":[6.0397496E0,0E0,6.9598765E0,0E0,0E0],"parents":[2147483647,0,0,2,2],"right_children":[2,-1,4,-1,-1],"split_conditions":[5.2795885E-4,-8.433563E-2,4.961992E-1,9.292088E-2,-7.5747184E-2],"split_indices":[0,0,2,0,0],"split_type":[0,0,0,0,0],"sum_hessian":[1.4252016E1,4.5292006E0,9.7228155E0,7.083119E0,2.639697E0],"tree_param":{"num_deleted":"0","num_feature":"10","num_nodes":"5","size_leaf_vector":"1"}},{"base_weights":[9.052104E-3,-8.165579E-2,4.1198727E-1,9.126137E-2,-7.470708E-2],"categories":[],"categories_nodes":[],"categories_segments":[],"categories_sizes":[],"default_left":[0,0,0,0,0],"id":39,"left_children":[1,-1,3,-1,-1],"loss_changes":[4.9368215E0,0E0,6.4599442E0,0E0,0E0],"parents":[2147483647,0,0,2,2],"right_children":[2,-1,4,-1,-1],"split_conditions":[5.2795885E-4,-8.165579E-2,4.961992E-1,9.126137E-2,-7.470708E-2],"split_indices":[0,0,2,0,0],"split_type":[0,0,0,0,0],"sum_hessian":[1.282886E1,3.8709002E0,8.95796E0,6.404374E0,2.5535858E0],"tree_param":{"num_deleted":"0","num_feature":"10","num_nodes":"5","size_leaf_vector":"1"}},{"base_weights":[-2.324944E-2,-8.205779E-2,4.2117447E-1,8.967631E-2,-7.1596704E-2],"categories":[],"categories_nodes":[],"categories_segments":[],"categories_sizes":[],"default_left":[0,0,0,0,0],"id":40,"left_children":[1,-1,3,-1,-1],"loss_changes":[4.97714E0,0E0,5.5382056E0,0E0,0E0],"parents":[2147483647,0,0,2,2],"right_children":[2,-1,4,-1,-1],"split_conditions":[5.2795885E-4,-8.205779E-2,4.961992E-1,8.967631E-2,-7.1596704E-2],"split_indices":[0,0,2,0,0],"split_type":[0,0,0,0,0],"sum_hessian":[1.2070438E1,4.0170956E0,8.053343E0,5.82749E0,2.2258527E0],"tree_param":{"num_deleted":"0","num_feature":"10","num_nodes":"5","size_leaf_vector":"1"}},{"base_weights":[-9.549589E-3,-8.0365226E-2,4.5585313E-1,8.776608E-2,-6.5980375E-2],"categories":[],"categories_nodes":[],"categories_segments":[],"categories_sizes":[],"default_left":[0,0,0,0,0],"id":41,"left_children":[1,-1,3,-1,-1],"loss_changes":[4.664964E0,0E0,4.3303547E0,0E0,0E0],"parents":[2147483647,0,0,2,2],"right_children":[2,-1,4,-1,-1],"split_conditions":[5.2795885E-4,-8.0365226E-2,4.961992E-1,8.776608E-2,-6.5980375E-2],"split_indices":[0,0,2,0,0],"split_type":[0,0,0,0,0],"sum_hessian":[1.0631164E1,3.6597884E0,6.9713755E0,5.213557E0,1.7578183E0],"tree_param":{"num_deleted":"0","num_feature":"10","num_nodes":"5","size_leaf_vector":"1"}},{"base_weights":[-1.1676675E-2,-7.869129E-2,4.0368444E-1,8.727078E-2,-6.892902E-2],"categories":[],"categories_nodes":[],"categories_segments":[],"categories_sizes":[],"default_left":[0,0,0,0,0],"id":42,"left_children":[1,-1,3,-1,-1],"loss_changes":[4.0248413E0,0E0,4.78325E0,0E0,0E0],"parents":[2147483647,0,0,2,2],"right_children":[2,-1,4,-1,-1],"split_conditions":[5.2795885E-4,-7.869129E-2,4.961992E-1,8.727078E-2,-6.892902E-2],"split_indices":[0,0,2,0,0],"split_type":[0,0,0,0,0],"sum_hessian":[1.0512866E1,3.3555293E0,7.1573367E0,5.1492095E0,2.0081275E0],"tree_param":{"num_deleted":"0","num_feature":"10","num_nodes":"5","size_leaf_vector":"1"}},{"base_weights":[-2.4252728E-2,-7.709976E-2,3.959738E-1,8.52033E-2,-6.598758E-2],"categories":[],"categories_nodes":[],"categories_segments":[],"categories_sizes":[],"default_left":[0,0,0,0,0],"id":43,"left_children":[1,-1,3,-1,-1],"loss_changes":[3.5820322E0,0E0,4.0978937E0,0E0,0E0],"parents":[2147483647,0,0,2,2],"right_children":[2,-1,4,-1,-1],"split_conditions":[5.2795885E-4,-7.709976E-2,4.961992E-1,8.52033E-2,-6.598758E-2],"split_indices":[0,0,2,0,0],"split_type":[0,0,0,0,0],"sum_hessian":[9.442054E0,3.0995023E0,6.3425517E0,4.5641627E0,1.7783893E0],"tree_param":{"num_deleted":"0","num_feature":"10","num_nodes":"5","size_leaf_vector":"1"}},{"base_weights":[-5.3564187E-2,-7.630312E-2,3.6687317E-1,5.961485E-3,4.172241E-2],"categories":[],"categories_nodes":[],"categories_segments":[],"categories_sizes":[],"default_left":[0,0,0,0,0],"id":44,"left_children":[1,-1,3,-1,-1],"loss_changes":[3.2150724E0,0E0,8.11612E-2,0E0,0E0],"parents":[2147483647,0,0,2,2],"right_children":[2,-1,4,-1,-1],"split_conditions":[5.2795885E-4,-7.630312E-2,-8.671302E-1,5.961485E-3,4.172241E-2],"split_indices":[0,0,1,0,0],"split_type":[0,0,0,0,0],"sum_hessian":[8.839994E0,2.9861555E0,5.853839E0,1.1317158E0,4.722123E0],"tree_param":{"num_deleted":"0","num_feature":"10","num_nodes":"5","size_leaf_vector":"1"}},{"base_weights":[-4.307408E-2,-7.375924E-2,3.2432812E-1,8.314408E-2,-6.754807E-2],"categories":[],"categories_nodes":[],"categories_segments":[],"categories_sizes":[],"default_left":[0,0,0,0,0],"id":45,"left_children":[1,-1,3,-1,-1],"loss_changes":[2.6997447E0,0E0,4.11132E0,0E0,0E0],"parents":[2147483647,0,0,2,2],"right_children":[2,-1,4,-1,-1],"split_conditions":[5.2795885E-4,-7.375924E-2,4.961992E-1,8.314408E-2,-6.754807E-2],"split_indices":[0,0,2,0,0],"split_type":[0,0,0,0,0],"sum_hessian":[8.642773E0,2.6416135E0,6.001159E0,4.093365E0,1.9077942E0],"tree_param":{"num_deleted":"0","num_feature":"10","num_nodes":"5","size_leaf_vector":"1"}},{"base_weights":[-6.0570836E-2,-7.131983E-2,2.7540484E-1,6.588191E-3,3.2268283E-1,3.5495467E-2,1.0245021E-2],"categories":[],"categories_nodes":[],"categories_segments":[],"categories_sizes":[],"default_left":[0,0,0,0,0,0,0],"id":46,"left_children":[1,-1,3,-1,5,-1,-1],"loss_changes":[2.183363E0,0E0,4.5145154E-2,0E0,6.842017E-4,0E0,0E0],"parents":[2147483647,0,0,2,2,4,4],"right_children":[2,-1,4,-1,6,-1,-1],"split_conditions":[5.2795885E-4,-7.131983E-2,-5.2286005E-1,6.588191E-3,8.623935E-1,3.5495467E-2,1.0245021E-2],"split_indices":[0,0,7,0,3,0,0],"split_type":[0,0,0,0,0,0,0],"sum_hessian":[8.061761E0,2.3582091E0,5.7035513E0,1.4906968E0,4.212855E0,3.1408794E0,1.0719755E0],"tree_param":{"num_deleted":"0","num_feature":"10","num_nodes":"7","size_leaf_vector":"1"}},{"base_weights":[-5.2581303E-2,-7.2263174E-2,3.1073046E-1,8.1465706E-2,-6.599442E-2],"categories":[],"categories_nodes":[],"categories_segments":[],"categories_sizes":[],"default_left":[0,0,0,0,0],"id":47,"left_children":[1,-1,3,-1,-1],"loss_changes":[2.4219792E0,0E0,3.742715E0,0E0,0E0],"parents":[2147483647,0,0,2,2],"right_children":[2,-1,4,-1,-1],"split_conditions":[5.2795885E-4,-7.2263174E-2,4.961992E-1,8.1465706E-2,-6.599442E-2],"split_indices":[0,0,2,0,0],"split_type":[0,0,0,0,0],"sum_hessian":[8.026704E0,2.4743268E0,5.5523767E0,3.7607243E0,1.7916522E0],"tree_param":{"num_deleted":"0","num_feature":"10","num_nodes":"5","size_leaf_vector":"1"}},{"base_weights":[-2.796591E-2,2.7623868E-2,-6.826271E-2],"categories":[],"categories_nodes":[],"categories_segments":[],"categories_sizes":[],"default_left":[0,0,0],"id":48,"left_children":[1,-1,-1],"loss_changes":[1.8915863E0,0E0,0E0],"parents":[2147483647,0,0],"right_children":[2,-1,-1],"split_conditions":[4.961992E-1,2.7623868E-2,-6.826271E-2],"split_indices":[2,0,0],"split_type":[0,0,0],"sum_hessian":[7.551395E0,5.5503364E0,2.0010586E0],"tree_param":{"num_deleted":"0","num_feature":"10","num_nodes":"3","size_leaf_vector":"1"}},{"base_weights":[-3.4888227E-2,-7.077157E-2,3.3591223E-1,8.017584E-2,-6.235985E-2],"categories":[],"categories_nodes":[],"categories_segments":[],"categories_sizes":[],"default_left":[0,0,0,0,0],"id":49,"left_children":[1,-1,3,-1,-1],"loss_changes":[2.3351288E0,0E0,3.2257202E0,0E0,0E0],"parents":[2147483647,0,0,2,2],"right_children":[2,-1,4,-1,-1],"split_conditions":[5.2795885E-4,-7.077157E-2,4.961992E-1,8.017584E-2,-6.235985E-2],"split_indices":[0,0,2,0,0],"split_type":[0,0,0,0,0],"sum_hessian":[7.40692E0,2.3088439E0,5.098076E0,3.5425591E0,1.5555168E0],"tree_param":{"num_deleted":"0","num_feature":"10","num_nodes":"5","size_leaf_vector":"1"}},{"base_weights":[-6.615476E-2,-6.8787254E-2,3.0112332E-1,6.48985E-3,3.4290846E-2],"categories":[],"categories_nodes":[],"categories_segments":[],"categories_sizes":[],"default_left":[0,0,0,0,0],"id":50,"left_children":[1,-1,3,-1,-1],"loss_changes":[1.9351987E0,0E0,3.1570047E-2,0E0,0E0],"parents":[2147483647,0,0,2,2],"right_children":[2,-1,4,-1,-1],"split_conditions":[5.2795885E-4,-6.8787254E-2,-6.7771536E-1,6.48985E-3,3.4290846E-2],"split_indices":[0,0,1,0,0],"split_type":[0,0,0,0,0],"sum_hessian":[6.5678334E0,2.1148994E0,4.4529343E0,1.0530202E0,3.3999138E0],"tree_param":{"num_deleted":"0","num_feature":"10","num_nodes":"5","size_leaf_vector":"1"}},{"base_weights":[-5.592633E-2,-6.686618E-2,2.727301E-1,7.739996E-2,-6.2685266E-2],"categories":[],"categories_nodes":[],"categories_segments":[],"categories_sizes":[],"default_left":[0,0,0,0,0],"id":51,"left_children":[1,-1,3,-1,-1],"loss_changes":[1.7146555E0,0E0,3.0387473E0,0E0,0E0],"parents":[2147483647,0,0,2,2],"right_children":[2,-1,4,-1,-1],"split_conditions":[5.2795885E-4,-6.686618E-2,4.961992E-1,7.739996E-2,-6.2685266E-2],"split_indices":[0,0,2,0,0],"split_type":[0,0,0,0,0],"sum_hessian":[6.608976E0,1.9461365E0,4.6628394E0,3.0839746E0,1.5788647E0],"tree_param":{"num_deleted":"0","num_feature":"10","num_nodes":"5","size_leaf_vector":"1"}},{"base_weights":[-7.030757E-2,2.1264171E-2,-6.231875E-2],"categories":[],"categories_nodes":[],"categories_segments":[],"categories_sizes":[],"default_left":[0,0,0],"id":52,"left_children":[1,-1,-1],"loss_changes":[1.2031534E0,0E0,0E0],"parents":[2147483647,0,0],"right_children":[2,-1,-1],"split_conditions":[4.9403018E-1,2.1264171E-2,-6.231875E-2],"split_indices":[2,0,0],"split_type":[0,0,0],"sum_hessian":[5.8438926E0,4.272654E0,1.5712384E0],"tree_param":{"num_deleted":"0","num_feature":"10","num_nodes":"3","size_leaf_vector":"1"}},{"base_weights":[-8.807413E-2,-6.5887265E-2,2.4095179E-1,7.491558E-2,-6.134018E-2],"categories":[],"categories_nodes":[],"categories_segments":[],"categories_sizes":[],"default_left":[0,0,0,0,0],"id":53,"left_children":[1,-1,3,-1,-1],"loss_changes":[1.4938684E0,0E0,2.7354221E0,0E0,0E0],"parents":[2147483647,0,0,2,2],"right_children":[2,-1,4,-1,-1],"split_conditions":[5.2795885E-4,-6.5887265E-2,4.961992E-1,7.491558E-2,-6.134018E-2],"split_indices":[0,0,2,0,0],"split_type":[0,0,0,0,0],"sum_hessian":[6.108938E0,1.8672004E0,4.241738E0,2.736869E0,1.5048689E0],"tree_param":{"num_deleted":"0","num_feature":"10","num_nodes":"5","size_leaf_vector":"1"}},{"base_weights":[-6.309624E-2,-6.3773036E-2,2.70724E-1,7.350856E-2,-5.7332117E-2],"categories":[],"categories_nodes":[],"categories_segments":[],"categories_sizes":[],"default_left":[0,0,0,0,0],"id":54,"left_children":[1,-1,3,-1,-1],"loss_changes":[1.431033E0,0E0,2.322952E0,0E0,0E0],"parents":[2147483647,0,0,2,2],"right_children":[2,-1,4,-1,-1],"split_conditions":[5.2795885E-4,-6.3773036E-2,4.961992E-1,7.350856E-2,-5.7332117E-2],"split_indices":[0,0,2,0,0],"split_type":[0,0,0,0,0],"sum_hessian":[5.5600805E0,1.7085694E0,3.851511E0,2.5678625E0,1.2836485E0],"tree_param":{"num_deleted":"0","num_feature":"10","num_nodes":"5","size_leaf_vector":"1"}},{"base_weights":[-3.5891883E-2,4.6697672E-2,-1.15620695E-1,-6.639776E-3,1.2611485E-2,-1.7260494E-2,-1.437767E-3],"categories":[],"categories_nodes":[],"categories_segments":[],"categories_sizes":[],"default_left":[0,0,0,0,0,0,0],"id":55,"left_children":[1,3,5,-1,-1,-1,-1],"loss_changes":[4.6137135E-2,4.2065386E-2,1.733895E-2,0E0,0E0,0E0,0E0],"parents":[2147483647,0,0,1,1,2,2],"right_children":[2,4,6,-1,-1,-1,-1],"split_conditions":[1.4808942E-1,-2.0298064E-1,6.653689E-1,-6.639776E-3,1.2611485E-2,-1.7260494E-2,-1.437767E-3],"split_indices":[5,7,5,0,0,0,0],"split_type":[0,0,0,0,0,0,0],"sum_hessian":[5.186691E0,2.7511356E0,2.4355552E0,1.2025541E0,1.5485815E0,1.1074013E0,1.328154E0],"tree_param":{"num_deleted":"0","num_feature":"10","num_nodes":"7","size_leaf_vector":"1"}},{"base_weights":[-7.444861E-2,-6.3533366E-2,2.671638E-1,3.1180874E-2,5.8386205E-3],"categories":[],"categories_nodes":[],"categories_segments":[],"categories_sizes":[],"default_left":[0,0,0,0,0],"id":56,"left_children":[1,-1,3,-1,-1],"loss_changes":[1.3837979E0,0E0,2.5060534E-2,0E0,0E0],"parents":[2147483647,0,0,2,2],"right_children":[2,-1,4,-1,-1],"split_conditions":[5.2795885E-4,-6.3533366E-2,5.442203E-1,3.1180874E-2,5.8386205E-3],"split_indices":[0,0,3,0,0],"split_type":[0,0,0,0,0],"sum_hessian":[5.336253E0,1.6944194E0,3.6418338E0,2.5937006E0,1.0481331E0],"tree_param":{"num_deleted":"0","num_feature":"10","num_nodes":"5","size_leaf_vector":"1"}},{"base_weights":[-1.0867594E-1,-6.0496796E-2,2.012574E-1,6.906166E-2,-5.6492995E-2],"categories":[],"categories_nodes":[],"categories_segments":[],"categories_sizes":[],"default_left":[0,0,0,0,0],"id":57,"left_children":[1,-1,3,-1,-1],"loss_changes":[1.0199707E0,0E0,2.0192738E0,0E0,0E0],"parents":[2147483647,0,0,2,2],"right_children":[2,-1,4,-1,-1],"split_conditions":[5.2795885E-4,-6.0496796E-2,4.961992E-1,6.906166E-2,-5.6492995E-2],"split_indices":[0,0,2,0,0],"split_type":[0,0,0,0,0],"sum_hessian":[4.839495E0,1.4944783E0,3.3450172E0,2.10146E0,1.2435572E0],"tree_param":{"num_deleted":"0","num_feature":"10","num_nodes":"5","size_leaf_vector":"1"}},{"base_weights":[-1.1410248E-1,-5.964905E-2,1.9883822E-1,6.753155E-2,-5.474486E-2],"categories":[],"categories_nodes":[],"categories_segments":[],"categories_sizes":[],"default_left":[0,0,0,0,0],"id":58,"left_children":[1,-1,3,-1,-1],"loss_changes":[9.611308E-1,0E0,1.8401004E0,0E0,0E0],"parents":[2147483647,0,0,2,2],"right_children":[2,-1,4,-1,-1],"split_conditions":[5.2795885E-4,-5.964905E-2,4.961992E-1,6.753155E-2,-5.474486E-2],"split_indices":[0,0,2,0,0],"split_type":[0,0,0,0,0],"sum_hessian":[4.5811605E0,1.4460459E0,3.135115E0,1.9714893E0,1.1636256E0],"tree_param":{"num_deleted":"0","num_feature":"10","num_nodes":"5","size_leaf_vector":"1"}},{"base_weights":[-6.3139096E-2,2.0496732E-2,-5.584407E-2],"categories":[],"categories_nodes":[],"categories_segments":[],"categories_sizes":[],"default_left":[0,0,0],"id":59,"left_children":[1,-1,-1],"loss_changes":[8.529592E-1,0E0,0E0],"parents":[2147483647,0,0],"right_children":[2,-1,-1],"split_conditions":[4.961992E-1,2.0496732E-2,-5.584407E-2],"split_indices":[2,0,0],"split_type":[0,0,0],"sum_hessian":[4.561243E0,3.3396626E0,1.2215801E0],"tree_param":{"num_deleted":"0","num_feature":"10","num_nodes":"3","size_leaf_vector":"1"}},{"base_weights":[-5.303357E-2,-5.696958E-2,2.4614604E-1,6.859226E-2,-5.2560326E-2],"categories":[],"categories_nodes":[],"categories_segments":[],"categories_sizes":[],"default_left":[0,0,0,0,0],"id":60,"left_children":[1,-1,3,-1,-1],"loss_changes":[9.816846E-1,0E0,1.7675644E0,0E0,0E0],"parents":[2147483647,0,0,2,2],"right_children":[2,-1,4,-1,-1],"split_conditions":[5.2795885E-4,-5.696958E-2,4.961992E-1,6.859226E-2,-5.2560326E-2],"split_indices":[0,0,2,0,0],"split_type":[0,0,0,0,0],"sum_hessian":[4.4436836E0,1.2979763E0,3.1457071E0,2.0746765E0,1.0710309E0],"tree_param":{"num_deleted":"0","num_feature":"10","num_nodes":"5","size_leaf_vector":"1"}},{"base_weights":[-1.2955646E-1,-5.7907443E-2,1.740591E-1,6.512488E-2,-5.360244E-2],"categories":[],"categories_nodes":[],"categories_segments":[],"categories_sizes":[],"default_left":[0,0,0,0,0],"id":61,"left_children":[1,-1,3,-1,-1],"loss_changes":[8.1790936E-1,0E0,1.6722772E0,0E0,0E0],"parents":[2147483647,0,0,2,2],"right_children":[2,-1,4,-1,-1],"split_conditions":[5.2795885E-4,-5.7907443E-2,4.961992E-1,6.512488E-2,-5.360244E-2],"split_indices":[0,0,2,0,0],"split_type":[0,0,0,0,0],"sum_hessian":[4.2543426E0,1.3493301E0,2.9050126E0,1.7869824E0,1.1180302E0],"tree_param":{"num_deleted":"0","num_feature":"10","num_nodes":"5","size_leaf_vector":"1"}},{"base_weights":[-5.2997928E-2,-5.4840174E-2,2.4325695E-2],"categories":[],"categories_nodes":[],"categories_segments":[],"categories_sizes":[],"default_left":[0,0,0],"id":62,"left_children":[1,-1,-1],"loss_changes":[8.733449E-1,0E0,0E0],"parents":[2147483647,0,0],"right_children":[2,-1,-1],"split_conditions":[-1.2246773E-2,-5.4840174E-2,2.4325695E-2],"split_indices":[0,0,0],"split_type":[0,0,0],"sum_hessian":[4.0416536E0,1.1939651E0,2.8476887E0],"tree_param":{"num_deleted":"0","num_feature":"10","num_nodes":"3","size_leaf_vector":"1"}},{"base_weights":[-1.12171434E-1,-5.443285E-2,1.7895061E-1,6.2058624E-2,-4.6919238E-2],"categories":[],"categories_nodes":[],"categories_segments":[],"categories_sizes":[],"default_left":[0,0,0,0,0],"id":63,"left_children":[1,-1,3,-1,-1],"loss_changes":[7.000412E-1,0E0,1.3258283E0,0E0,0E0],"parents":[2147483647,0,0,2,2],"right_children":[2,-1,4,-1,-1],"split_conditions":[5.2795885E-4,-5.443285E-2,4.9403018E-1,6.2058624E-2,-4.6919238E-2],"split_indices":[0,0,2,0,0],"split_type":[0,0,0,0,0],"sum_hessian":[3.7900095E0,1.1754091E0,2.6146004E0,1.5803134E0,1.0342871E0],"tree_param":{"num_deleted":"0","num_feature":"10","num_nodes":"5","size_leaf_vector":"1"}},{"base_weights":[-1.2127278E-1,-5.4358687E-2,1.7612842E-1,6.0464185E-2,-4.4096608E-2],"categories":[],"categories_nodes":[],"categories_segments":[],"categories_sizes":[],"default_left":[0,0,0,0,0],"id":64,"left_children":[1,-1,3,-1,-1],"loss_changes":[6.817743E-1,0E0,1.1903418E0,0E0,0E0],"parents":[2147483647,0,0,2,2],"right_children":[2,-1,4,-1,-1],"split_conditions":[5.2795885E-4,-5.4358687E-2,4.9120766E-1,6.0464185E-2,-4.4096608E-2],"split_indices":[0,0,2,0,0],"split_type":[0,0,0,0,0],"sum_hessian":[3.6659918E0,1.1728036E0,2.493188E0,1.4833335E0,1.0098546E0],"tree_param":{"num_deleted":"0","num_feature":"10","num_nodes":"5","size_leaf_vector":"1"}},{"base_weights":[-7.06605E-2,-5.0551113E-2,2.0454727E-2],"categories":[],"categories_nodes":[],"categories_segments":[],"categories_sizes":[],"default_left":[0,0,0],"id":65,"left_children":[1,-1,-1],"loss_changes":[6.347479E-1,0E0,0E0],"parents":[2147483647,0,0],"right_children":[2,-1,-1],"split_conditions":[5.2795885E-4,-5.0551113E-2,2.0454727E-2],"split_indices":[0,0,0],"split_type":[0,0,0],"sum_hessian":[3.4399438E0,1.0089254E0,2.4310184E0],"tree_param":{"num_deleted":"0","num_feature":"10","num_nodes":"3","size_leaf_vector":"1"}},{"base_weights":[-9.4641045E-2,1.7862419E-2,-5.096764E-2],"categories":[],"categories_nodes":[],"categories_segments":[],"categories_sizes":[],"default_left":[0,0,0],"id":66,"left_children":[1,-1,-1],"loss_changes":[5.918003E-1,0E0,0E0],"parents":[2147483647,0,0],"right_children":[2,-1,-1],"split_conditions":[4.961992E-1,1.7862419E-2,-5.096764E-2],"split_indices":[2,0,0],"split_type":[0,0,0],"sum_hessian":[3.4152973E0,2.4028459E0,1.0124514E0],"tree_param":{"num_deleted":"0","num_feature":"10","num_nodes":"3","size_leaf_vector":"1"}},{"base_weights":[-1.0168811E-1,-4.847744E-2,1.6766268E-1,5.6937303E-2,-3.7551858E-2],"categories":[],"categories_nodes":[],"categories_segments":[],"categories_sizes":[],"default_left":[0,0,0,0,0],"id":67,"left_children":[1,-1,3,-1,-1],"loss_changes":[5.290004E-1,0E0,9.3185437E-1,0E0,0E0],"parents":[2147483647,0,0,2,2],"right_children":[2,-1,4,-1,-1],"split_conditions":[3.4027413E-2,-4.847744E-2,3.813096E-1,5.6937303E-2,-3.7551858E-2],"split_indices":[0,0,2,0,0],"split_type":[0,0,0,0,0],"sum_hessian":[3.3390372E0,1.0482984E0,2.2907388E0,1.2891369E0,1.0016019E0],"tree_param":{"num_deleted":"0","num_feature":"10","num_nodes":"5","size_leaf_vector":"1"}},{"base_weights":[-8.323943E-2,1.7637609E-1,-4.5618165E-2,-3.2026093E-2,5.5033755E-2],"categories":[],"categories_nodes":[],"categories_segments":[],"categories_sizes":[],"default_left":[0,0,0,0,0],"id":68,"left_children":[1,3,-1,-1,-1],"loss_changes":[4.8809946E-1,7.7120113E-1,0E0,0E0,0E0],"parents":[2147483647,0,0,1,1],"right_children":[2,4,-1,-1,-1],"split_conditions":[4.9403018E-1,1.6801535E-1,-4.5618165E-2,-3.2026093E-2,5.5033755E-2],"split_indices":[2,0,0,0,0],"split_type":[0,0,0,0,0],"sum_hessian":[3.2102172E0,2.203422E0,1.0067952E0,1.0081519E0,1.1952701E0],"tree_param":{"num_deleted":"0","num_feature":"10","num_nodes":"5","size_leaf_vector":"1"}},{"base_weights":[-1.1659616E-1,-4.9204692E-2,1.653828E-1,5.2690316E-2,-2.9472267E-2],"categories":[],"categories_nodes":[],"categories_segments":[],"categories_sizes":[],"default_left":[0,0,0,0,0],"id":69,"left_children":[1,-1,3,-1,-1],"loss_changes":[5.158461E-1,0E0,6.696219E-1,0E0,0E0],"parents":[2147483647,0,0,2,2],"right_children":[2,-1,4,-1,-1],"split_conditions":[1.2828643E-2,-4.9204692E-2,2.023288E-1,5.2690316E-2,-2.9472267E-2],"split_indices":[0,0,2,0,0],"split_type":[0,0,0,0,0],"sum_hessian":[3.1038373E0,1.0117414E0,2.0920959E0,1.0902616E0,1.0018344E0],"tree_param":{"num_deleted":"0","num_feature":"10","num_nodes":"5","size_leaf_vector":"1"}},{"base_weights":[-9.131223E-2,1.3314784E-2,-3.549329E-2],"categories":[],"categories_nodes":[],"categories_segments":[],"categories_sizes":[],"default_left":[0,0,0],"id":70,"left_children":[1,-1,-1],"loss_changes":[2.7110285E-1,0E0,0E0],"parents":[2147483647,0,0],"right_children":[2,-1,-1],"split_conditions":[3.2434022E-1,1.3314784E-2,-3.549329E-2],"split_indices":[2,0,0],"split_type":[0,0,0],"sum_hessian":[2.782923E0,1.7704219E0,1.012501E0],"tree_param":{"num_deleted":"0","num_feature":"10","num_nodes":"3","size_leaf_vector":"1"}},{"base_weights":[-8.302074E-2,1.2928754E-2,-3.414323E-2],"categories":[],"categories_nodes":[],"categories_segments":[],"categories_sizes":[],"default_left":[0,0,0],"id":71,"left_children":[1,-1,-1],"loss_changes":[2.5936756E-1,0E0,0E0],"parents":[2147483647,0,0],"right_children":[2,-1,-1],"split_conditions":[3.813096E-1,1.2928754E-2,-3.414323E-2],"split_indices":[2,0,0],"split_type":[0,0,0],"sum_hessian":[2.922952E0,1.8789277E0,1.0440241E0],"tree_param":{"num_deleted":"0","num_feature":"10","num_nodes":"3","size_leaf_vector":"1"}},{"base_weights":[-8.168704E-2,-4.4609483E-2,1.919552E-2],"categories":[],"categories_nodes":[],"categories_segments":[],"categories_sizes":[],"default_left":[0,0,0],"id":72,"left_children":[1,-1,-1],"loss_changes":[4.8350477E-1,0E0,0E0],"parents":[2147483647,0,0],"right_children":[2,-1,-1],"split_conditions":[4.3602448E-2,-4.4609483E-2,1.919552E-2],"split_indices":[0,0,0],"split_type":[0,0,0],"sum_hessian":[2.990023E0,1.0120585E0,1.9779643E0],"tree_param":{"num_deleted":"0","num_feature":"10","num_nodes":"3","size_leaf_vector":"1"}},{"base_weights":[-9.9653855E-2,-3.661365E-2,1.5128465E-2],"categories":[],"categories_nodes":[],"categories_segments":[],"categories_sizes":[],"default_left":[0,0,0],"id":73,"left_children":[1,-1,-1],"loss_changes":[3.117354E-1,0E0,0E0],"parents":[2147483647,0,0],"right_children":[2,-1,-1],"split_conditions":[1.455212E-1,-3.661365E-2,1.5128465E-2],"split_indices":[0,0,0],"split_type":[0,0,0],"sum_hessian":[2.8334327E0,1.1515174E0,1.6819154E0],"tree_param":{"num_deleted":"0","num_feature":"10","num_nodes":"3","size_leaf_vector":"1"}},{"base_weights":[-9.717238E-2,1.2242895E-2,-3.4632366E-2],"categories":[],"categories_nodes":[],"categories_segments":[],"categories_sizes":[],"default_left":[0,0,0],"id":74,"left_children":[1,-1,-1],"loss_changes":[2.4584095E-1,0E0,0E0],"parents":[2147483647,0,0],"right_children":[2,-1,-1],"split_conditions":[4.2584366E-1,1.2242895E-2,-3.4632366E-2],"split_indices":[2,0,0],"split_type":[0,0,0],"sum_hessian":[2.7182636E0,1.7151504E0,1.0031133E0],"tree_param":{"num_deleted":"0","num_feature":"10","num_nodes":"3","size_leaf_vector":"1"}},{"base_weights":[-7.728337E-2,-3.598952E-2,1.5875911E-2],"categories":[],"categories_nodes":[],"categories_segments":[],"categories_sizes":[],"default_left":[0,0,0],"id":75,"left_children":[1,-1,-1],"loss_changes":[3.0849954E-1,0E0,0E0],"parents":[2147483647,0,0],"right_children":[2,-1,-1],"split_conditions":[7.156624E-2,-3.598952E-2,1.5875911E-2],"split_indices":[0,0,0],"split_type":[0,0,0],"sum_hessian":[2.7680857E0,1.0209751E0,1.7471105E0],"tree_param":{"num_deleted":"0","num_feature":"10","num_nodes":"3","size_leaf_vector":"1"}},{"base_weights":[-7.341349E-2,-3.5284203E-2,1.4598498E-2],"categories":[],"categories_nodes":[],"categories_segments":[],"categories_sizes":[],"default_left":[0,0,0],"id":76,"left_children":[1,-1,-1],"loss_changes":[2.9135498E-1,0E0,0E0],"parents":[2147483647,0,0],"right_children":[2,-1,-1],"split_conditions":[7.156624E-2,-3.5284203E-2,1.4598498E-2],"split_indices":[0,0,0],"split_type":[0,0,0],"sum_hessian":[2.9122527E0,1.0133779E0,1.8988748E0],"tree_param":{"num_deleted":"0","num_feature":"10","num_nodes":"3","size_leaf_vector":"1"}},{"base_weights":[-1.0683683E-1,1.3330064E-2,-3.7752148E-2],"categories":[],"categories_nodes":[],"categories_segments":[],"categories_sizes":[],"default_left":[0,0,0],"id":77,"left_children":[1,-1,-1],"loss_changes":[2.9279134E-1,0E0,0E0],"parents":[2147483647,0,0],"right_children":[2,-1,-1],"split_conditions":[3.4378788E-1,1.3330064E-2,-3.7752148E-2],"split_indices":[2,0,0],"split_type":[0,0,0],"sum_hessian":[2.730182E0,1.7156701E0,1.0145117E0],"tree_param":{"num_deleted":"0","num_feature":"10","num_nodes":"3","size_leaf_vector":"1"}},{"base_weights":[-8.8988274E-2,1.0820365E-2,-3.0248994E-2],"categories":[],"categories_nodes":[],"categories_segments":[],"categories_sizes":[],"default_left":[0,0,0],"id":78,"left_children":[1,-1,-1],"loss_changes":[1.85537E-1,0E0,0E0],"parents":[2147483647,0,0],"right_children":[2,-1,-1],"split_conditions":[3.4378788E-1,1.0820365E-2,-3.0248994E-2],"split_indices":[2,0,0],"split_type":[0,0,0],"sum_hessian":[2.6295385E0,1.623373E0,1.0061655E0],"tree_param":{"num_deleted":"0","num_feature":"10","num_nodes":"3","size_leaf_vector":"1"}},{"base_weights":[-7.389907E-2,-3.3432394E-2,1.4612085E-2],"categories":[],"categories_nodes":[],"categories_segments":[],"categories_sizes":[],"default_left":[0,0,0],"id":79,"left_children":[1,-1,-1],"loss_changes":[2.634862E-1,0E0,0E0],"parents":[2147483647,0,0],"right_children":[2,-1,-1],"split_conditions":[8.658979E-2,-3.3432394E-2,1.4612085E-2],"split_indices":[0,0,0],"split_type":[0,0,0],"sum_hessian":[2.7458906E0,1.0195689E0,1.7263217E0],"tree_param":{"num_deleted":"0","num_feature":"10","num_nodes":"3","size_leaf_vector":"1"}},{"base_weights":[-5.247425E-2,-2.8625313E-2,1.4418016E-2],"categories":[],"categories_nodes":[],"categories_segments":[],"categories_sizes":[],"default_left":[0,0,0],"id":80,"left_children":[1,-1,-1],"loss_changes":[2.099863E-1,0E0,0E0],"parents":[2147483647,0,0],"right_children":[2,-1,-1],"split_conditions":[1.13517344E-1,-2.8625313E-2,1.4418016E-2],"split_indices":[0,0,0],"split_type":[0,0,0],"sum_hessian":[2.6698043E0,1.0116088E0,1.6581955E0],"tree_param":{"num_deleted":"0","num_feature":"10","num_nodes":"3","size_leaf_vector":"1"}},{"base_weights":[-8.2252555E-2,-3.0783286E-2,1.2493781E-2],"categories":[],"categories_nodes":[],"categories_segments":[],"categories_sizes":[],"default_left":[0,0,0],"id":81,"left_children":[1,-1,-1],"loss_changes":[2.1045753E-1,0E0,0E0],"parents":[2147483647,0,0],"right_children":[2,-1,-1],"split_conditions":[1.4088625E-1,-3.0783286E-2,1.2493781E-2],"split_indices":[0,0,0],"split_type":[0,0,0],"sum_hessian":[2.680032E0,1.0505201E0,1.6295118E0],"tree_param":{"num_deleted":"0","num_feature":"10","num_nodes":"3","size_leaf_vector":"1"}},{"base_weights":[-6.934341E-2,-2.6500834E-2,1.2089907E-2],"categories":[],"categories_nodes":[],"categories_segments":[],"categories_sizes":[],"default_left":[0,0,0],"id":82,"left_children":[1,-1,-1],"loss_changes":[1.6076897E-1,0E0,0E0],"parents":[2147483647,0,0],"right_children":[2,-1,-1],"split_conditions":[1.6057397E-1,-2.6500834E-2,1.2089907E-2],"split_indices":[0,0,0],"split_type":[0,0,0],"sum_hessian":[2.4582653E0,1.0181216E0,1.4401438E0],"tree_param":{"num_deleted":"0","num_feature":"10","num_nodes":"3","size_leaf_vector":"1"}},{"base_weights":[-3.819411E-2,1.680908E-2,-2.8678343E-2],"categories":[],"categories_nodes":[],"categories_segments":[],"categories_sizes":[],"default_left":[0,0,0],"id":83,"left_children":[1,-1,-1],"loss_changes":[2.3310483E-1,0E0,0E0],"parents":[2147483647,0,0],"right_children":[2,-1,-1],"split_conditions":[3.6748168E-1,1.680908E-2,-2.8678343E-2],"split_indices":[2,0,0],"split_type":[0,0,0],"sum_hessian":[2.6056626E0,1.6009665E0,1.004696E0],"tree_param":{"num_deleted":"0","num_feature":"10","num_nodes":"3","size_leaf_vector":"1"}},{"base_weights":[-2.787193E-2,-2.6502023E-2,1.6648112E-2],"categories":[],"categories_nodes":[],"categories_segments":[],"categories_sizes":[],"default_left":[0,0,0],"id":84,"left_children":[1,-1,-1],"loss_changes":[2.1112125E-1,0E0,0E0],"parents":[2147483647,0,0],"right_children":[2,-1,-1],"split_conditions":[1.4088625E-1,-2.6502023E-2,1.6648112E-2],"split_indices":[0,0,0],"split_type":[0,0,0],"sum_hessian":[2.6233156E0,1.0178003E0,1.6055152E0],"tree_param":{"num_deleted":"0","num_feature":"10","num_nodes":"3","size_leaf_vector":"1"}},{"base_weights":[-8.381289E-2,1.5082638E-2,-3.3528645E-2],"categories":[],"categories_nodes":[],"categories_segments":[],"categories_sizes":[],"default_left":[0,0,0],"id":85,"left_children":[1,-1,-1],"loss_changes":[2.5923377E-1,0E0,0E0],"parents":[2147483647,0,0],"right_children":[2,-1,-1],"split_conditions":[2.8100926E-1,1.5082638E-2,-3.3528645E-2],"split_indices":[2,0,0],"split_type":[0,0,0],"sum_hessian":[2.5363395E0,1.5191319E0,1.0172076E0],"tree_param":{"num_deleted":"0","num_feature":"10","num_nodes":"3","size_leaf_vector":"1"}},{"base_weights":[-9.9478945E-2,1.2763458E-2,-3.095523E-2],"categories":[],"categories_nodes":[],"categories_segments":[],"categories_sizes":[],"default_left":[0,0,0],"id":86,"left_children":[1,-1,-1],"loss_changes":[2.02493E-1,0E0,0E0],"parents":[2147483647,0,0],"right_children":[2,-1,-1],"split_conditions":[2.023288E-1,1.2763458E-2,-3.095523E-2],"split_indices":[2,0,0],"split_type":[0,0,0],"sum_hessian":[2.4160903E0,1.3495258E0,1.0665644E0],"tree_param":{"num_deleted":"0","num_feature":"10","num_nodes":"3","size_leaf_vector":"1"}},{"base_weights":[-4.4334184E-2,-2.7101783E-2,1.5207179E-2],"categories":[],"categories_nodes":[],"categories_segments":[],"categories_sizes":[],"default_left":[0,0,0],"id":87,"left_children":[1,-1,-1],"loss_changes":[2.0062159E-1,0E0,0E0],"parents":[2147483647,0,0],"right_children":[2,-1,-1],"split_conditions":[1.4088625E-1,-2.7101783E-2,1.5207179E-2],"split_indices":[0,0,0],"split_type":[0,0,0],"sum_hessian":[2.5804176E0,1.0215274E0,1.5588902E0],"tree_param":{"num_deleted":"0","num_feature":"10","num_nodes":"3","size_leaf_vector":"1"}},{"base_weights":[-6.016944E-2,1.2825097E-2,-2.6043221E-2],"categories":[],"categories_nodes":[],"categories_segments":[],"categories_sizes":[],"default_left":[0,0,0],"id":88,"left_children":[1,-1,-1],"loss_changes":[1.6651772E-1,0E0,0E0],"parents":[2147483647,0,0],"right_children":[2,-1,-1],"split_conditions":[2.8100926E-1,1.2825097E-2,-2.6043221E-2],"split_indices":[2,0,0],"split_type":[0,0,0],"sum_hessian":[2.5278132E0,1.4876864E0,1.0401267E0],"tree_param":{"num_deleted":"0","num_feature":"10","num_nodes":"3","size_leaf_vector":"1"}},{"base_weights":[-4.1736923E-2,-2.2448352E-2,1.1752627E-2],"categories":[],"categories_nodes":[],"categories_segments":[],"categories_sizes":[],"default_left":[0,0,0],"id":89,"left_children":[1,-1,-1],"loss_changes":[1.3027522E-1,0E0,0E0],"parents":[2147483647,0,0],"right_children":[2,-1,-1],"split_conditions":[1.455212E-1,-2.2448352E-2,1.1752627E-2],"split_indices":[0,0,0],"split_type":[0,0,0],"sum_hessian":[2.5695999E0,1.0058845E0,1.5637152E0],"tree_param":{"num_deleted":"0","num_feature":"10","num_nodes":"3","size_leaf_vector":"1"}},{"base_weights":[-6.1101962E-2,-2.4421861E-2,1.191263E-2],"categories":[],"categories_nodes":[],"categories_segments":[],"categories_sizes":[],"default_left":[0,0,0],"id":90,"left_children":[1,-1,-1],"loss_changes":[1.4147511E-1,0E0,0E0],"parents":[2147483647,0,0],"right_children":[2,-1,-1],"split_conditions":[1.455212E-1,-2.4421861E-2,1.191263E-2],"split_indices":[0,0,0],"split_type":[0,0,0],"sum_hessian":[2.4052346E0,1.0169426E0,1.3882921E0],"tree_param":{"num_deleted":"0","num_feature":"10","num_nodes":"3","size_leaf_vector":"1"}},{"base_weights":[-4.930702E-2,-1.861762E-2,8.840488E-3],"categories":[],"categories_nodes":[],"categories_segments":[],"categories_sizes":[],"default_left":[0,0,0],"id":91,"left_children":[1,-1,-1],"loss_changes":[7.967765E-2,0E0,0E0],"parents":[2147483647,0,0],"right_children":[2,-1,-1],"split_conditions":[2.0475888E-1,-1.861762E-2,8.840488E-3],"split_indices":[0,0,0],"split_type":[0,0,0],"sum_hessian":[2.3540444E0,1.0041319E0,1.3499126E0],"tree_param":{"num_deleted":"0","num_feature":"10","num_nodes":"3","size_leaf_vector":"1"}},{"base_weights":[-6.796876E-2,1.3154988E-2,-2.716972E-2],"categories":[],"categories_nodes":[],"categories_segments":[],"categories_sizes":[],"default_left":[0,0,0],"id":92,"left_children":[1,-1,-1],"loss_changes":[1.7375602E-1,0E0,0E0],"parents":[2147483647,0,0],"right_children":[2,-1,-1],"split_conditions":[2.1257403E-1,1.3154988E-2,-2.716972E-2],"split_indices":[2,0,0],"split_type":[0,0,0],"sum_hessian":[2.3953836E0,1.3891888E0,1.0061948E0],"tree_param":{"num_deleted":"0","num_feature":"10","num_nodes":"3","size_leaf_vector":"1"}},{"base_weights":[-4.0655263E-2,1.4769915E-2,-2.3865184E-2],"categories":[],"categories_nodes":[],"categories_segments":[],"categories_sizes":[],"default_left":[0,0,0],"id":93,"left_children":[1,-1,-1],"loss_changes":[1.6250132E-1,0E0,0E0],"parents":[2147483647,0,0],"right_children":[2,-1,-1],"split_conditions":[2.2668424E-1,1.4769915E-2,-2.3865184E-2],"split_indices":[2,0,0],"split_type":[0,0,0],"sum_hessian":[2.412191E0,1.3663819E0,1.045809E0],"tree_param":{"num_deleted":"0","num_feature":"10","num_nodes":"3","size_leaf_vector":"1"}},{"base_weights":[-8.399424E-2,1.0137842E-2,-2.6011908E-2],"categories":[],"categories_nodes":[],"categories_segments":[],"categories_sizes":[],"default_left":[0,0,0],"id":94,"left_children":[1,-1,-1],"loss_changes":[1.3817161E-1,0E0,0E0],"parents":[2147483647,0,0],"right_children":[2,-1,-1],"split_conditions":[2.2668424E-1,1.0137842E-2,-2.6011908E-2],"split_indices":[2,0,0],"split_type":[0,0,0],"sum_hessian":[2.424364E0,1.3879409E0,1.0364233E0],"tree_param":{"num_deleted":"0","num_feature":"10","num_nodes":"3","size_leaf_vector":"1"}},{"base_weights":[-2.1426396E-2,-1.9237041E-2,1.3115977E-2],"categories":[],"categories_nodes":[],"categories_segments":[],"categories_sizes":[],"default_left":[0,0,0],"id":95,"left_children":[1,-1,-1],"loss_changes":[1.14170335E-1,0E0,0E0],"parents":[2147483647,0,0],"right_children":[2,-1,-1],"split_conditions":[1.6057397E-1,-1.9237041E-2,1.3115977E-2],"split_indices":[0,0,0],"split_type":[0,0,0],"sum_hessian":[2.4097579E0,1.0135422E0,1.3962158E0],"tree_param":{"num_deleted":"0","num_feature":"10","num_nodes":"3","size_leaf_vector":"1"}},{"base_weights":[-1.2521033E-2,-1.8631617E-2,1.4221722E-2],"categories":[],"categories_nodes":[],"categories_segments":[],"categories_sizes":[],"default_left":[0,0,0],"id":96,"left_children":[1,-1,-1],"loss_changes":[1.1871759E-1,0E0,0E0],"parents":[2147483647,0,0],"right_children":[2,-1,-1],"split_conditions":[1.8383452E-1,-1.8631617E-2,1.4221722E-2],"split_indices":[0,0,0],"split_type":[0,0,0],"sum_hessian":[2.429185E0,1.0480211E0,1.3811637E0],"tree_param":{"num_deleted":"0","num_feature":"10","num_nodes":"3","size_leaf_vector":"1"}},{"base_weights":[-1.4228653E-2,-1.586852E-2,1.451446E-2],"categories":[],"categories_nodes":[],"categories_segments":[],"categories_sizes":[],"default_left":[0,0,0],"id":97,"left_children":[1,-1,-1],"loss_changes":[9.6382074E-2,0E0,0E0],"parents":[2147483647,0,0],"right_children":[2,-1,-1],"split_conditions":[3.5778737E-1,-1.586852E-2,1.451446E-2],"split_indices":[0,0,0],"split_type":[0,0,0],"sum_hessian":[2.186002E0,1.1489271E0,1.0370749E0],"tree_param":{"num_deleted":"0","num_feature":"10","num_nodes":"3","size_leaf_vector":"1"}},{"base_weights":[-5.9402734E-2,1.32602425E-2,-2.4407424E-2],"categories":[],"categories_nodes":[],"categories_segments":[],"categories_sizes":[],"default_left":[0,0,0],"id":98,"left_children":[1,-1,-1],"loss_changes":[1.471284E-1,0E0,0E0],"parents":[2147483647,0,0],"right_children":[2,-1,-1],"split_conditions":[1.7334166E-1,1.32602425E-2,-2.4407424E-2],"split_indices":[2,0,0],"split_type":[0,0,0],"sum_hessian":[2.2366164E0,1.2347683E0,1.0018481E0],"tree_param":{"num_deleted":"0","num_feature":"10","num_nodes":"3","size_leaf_vector":"1"}},{"base_weights":[-7.3581575E-3,1.4660405E-2,-1.9566251E-2],"categories":[],"categories_nodes":[],"categories_segments":[],"categories_sizes":[],"default_left":[0,0,0],"id":99,"left_children":[1,-1,-1],"loss_changes":[1.3015763E-1,0E0,0E0],"parents":[2147483647,0,0],"right_children":[2,-1,-1],"split_conditions":[3.6748168E-1,1.4660405E-2,-1.9566251E-2],"split_indices":[2,0,0],"split_type":[0,0,0],"sum_hessian":[2.500055E0,1.4972878E0,1.0027673E0],"tree_param":{"num_deleted":"0","num_feature":"10","num_nodes":"3","size_leaf_vector":"1"}}]},"name":"gbtree"},"learner_model_param":{"base_score":"[3.44E-1]","boost_from_average":"1","num_class":"0","num_feature":"10","num_target":"1"},"objective":{"name":"binary:logistic","reg_loss_param":{"scale_pos_weight":"1"}}},"version":[3,2,0]}